{"learner":{"attributes":{"scikit_learn":"{\"_estimator_type\": \"classifier\"}"},"feature_names":["Unnamed: 0","url_length","hostname_length","ip","total_of.","total_of-","total_of@","total_of?","total_of&","total_of=","total_of_","total_of~","total_of%","total_of/","total_of*","total_of:","total_of,","total_of;","total_of$","total_of_www","total_of_com","total_of_http_in_path","https_token","ratio_digits_url","ratio_digits_host","punycode","port","tld_in_path","tld_in_subdomain","abnormal_subdomain","nb_subdomains","prefix_suffix","random_domain","shortening_service","path_extension","nb_redirection","nb_external_redirection","length_words_raw","char_repeat","shortest_words_raw","shortest_word_host","shortest_word_path","longest_words_raw","longest_word_host","longest_word_path","avg_words_raw","avg_word_host","avg_word_path","phish_hints","domain_in_brand","brand_in_subdomain","brand_in_path","suspecious_tld","statistical_report","nb_hyperlinks","ratio_intHyperlinks","ratio_extHyperlinks","ratio_nullHyperlinks","nb_extCSS","ratio_intRedirection","ratio_extRedirection","ratio_intErrors","ratio_extErrors","login_form","external_favicon","links_in_tags","submit_email","ratio_intMedia","ratio_extMedia","sfh","iframe","popup_window","safe_anchor","onmouseover","right_clic","empty_title","domain_in_title","whois_registered_domain","domain_registration_length","domain_age","web_traffic","dns_record","google_index","page_rank"],"feature_types":["int","int","int","int","int","int","int","int","int","int","int","int","int","int","int","int","int","int","int","int","int","int","int","float","float","int","int","int","int","int","int","int","int","int","int","int","int","int","int","int","int","int","int","int","int","float","float","float","int","int","int","int","int","int","int","float","float","int","int","int","float","int","float","int","int","float","int","float","float","int","int","int","float","int","int","int","int","int","int","int","int","int","int","int"],"gradient_booster":{"model":{"gbtree_model_param":{"num_parallel_tree":"1","num_trees":"100"},"iteration_indptr":[0,1,2,3,4,5,6,7,8,9,10,11,12,13,14,15,16,17,18,19,20,21,22,23,24,25,26,27,28,29,30,31,32,33,34,35,36,37,38,39,40,41,42,43,44,45,46,47,48,49,50,51,52,53,54,55,56,57,58,59,60,61,62,63,64,65,66,67,68,69,70,71,72,73,74,75,76,77,78,79,80,81,82,83,84,85,86,87,88,89,90,91,92,93,94,95,96,97,98,99,100],"tree_info":[0,0,0,0,0,0,0,0,0,0,0,0,0,0,0,0,0,0,0,0,0,0,0,0,0,0,0,0,0,0,0,0,0,0,0,0,0,0,0,0,0,0,0,0,0,0,0,0,0,0,0,0,0,0,0,0,0,0,0,0,0,0,0,0,0,0,0,0,0,0,0,0,0,0,0,0,0,0,0,0,0,0,0,0,0,0,0,0,0,0,0,0,0,0,0,0,0,0,0,0],"trees":[{"base_weights":[1.5445124E-7,-1.5608499E0,1.3641857E0,7.398681E-1,-1.6919695E0,1.8706417E0,5.334261E-1,-2.8147576E-2,1.6285897E0,-1.788815E0,-7.216851E-2,1.8817662E0,-1.1549954E0,1.322914E0,-1.0608242E0,5.220604E-1,-7.259107E-1,1.7798032E0,2.8869116E-1,-1.8173025E0,8.605885E-1,1.0788697E0,-1.4001462E0,1.8877633E0,-2.3000623E-1,-6.605407E-2,-4.2778468E-1,1.6511124E0,-3.4931403E-1,7.6461065E-1,-1.3114828E0,1.0804143E0,-8.20288E-1,-2.6075286E-1,-1.3300694E0,5.562957E-1,1.3922542E-1,-2.992654E-1,4.1614914E-1,-1.541645E0,-1.9525658E0,1.4543729E0,-3.741738E-1,3.0872269E-2,1.6958638E0,-1.5092434E0,3.339467E-1,1.3419714E0,1.920346E0,1.7038697E0,-5.0676054E-1,1.1463621E0,-8.9904654E-1,1.2911502E0,-1.7847659E-1,2.8308904E-1,-1.5109936E0,8.671242E-2,5.409943E-1,-4.7911897E-1,6.7524664E-2,-3.5077438E-1,2.1523169E-1,-2.2018251E-1,-4.848228E-1,-2.570195E-1,-5.424422E-1,-9.926496E-2,-5.867045E-1,5.488348E-1,-3.3272123E-1,-1.18971005E-1,4.5966813E-1,6.617452E-4,5.3620005E-1,-2.14986E-1,-5.4439354E-1,2.30483E-1,5.65251E-1,5.881345E-1,5.2885896E-1,5.3530324E-1,-5.3509563E-2,1.2099299E-1,5.0101256E-1,-3.8939234E-2,-4.5493388E-1,4.993348E-1,-6.580903E-2,2.1523169E-1,-4.1911882E-1,3.7603518E-1,-4.8994133E-1,-4.7429615E-1,4.6752572E-1],"categories":[],"categories_nodes":[],"categories_segments":[],"categories_sizes":[],"default_left":[0,0,0,0,0,0,0,0,0,0,0,0,0,0,0,0,0,0,0,0,0,0,0,0,0,0,0,0,0,0,0,0,0,0,0,0,0,0,0,0,0,0,0,0,0,0,0,0,0,0,0,0,0,0,0,0,0,0,0,0,0,0,0,0,0,0,0,0,0,0,0,0,0,0,0,0,0,0,0,0,0,0,0,0,0,0,0,0,0,0,0,0,0,0,0],"id":0,"left_children":[1,3,5,7,9,11,13,15,17,19,21,23,25,27,29,31,33,35,37,39,41,43,45,47,-1,-1,-1,49,51,53,55,57,59,61,63,-1,-1,-1,-1,65,67,69,-1,71,73,75,-1,77,79,81,-1,83,85,87,89,91,93,-1,-1,-1,-1,-1,-1,-1,-1,-1,-1,-1,-1,-1,-1,-1,-1,-1,-1,-1,-1,-1,-1,-1,-1,-1,-1,-1,-1,-1,-1,-1,-1,-1,-1,-1,-1,-1,-1],"loss_changes":[7.244349E3,4.7992407E2,7.6285913E2,5.8915783E1,2.3541162E2,4.0123535E1,8.686043E2,1.8518888E1,7.5905685E0,1.084917E2,1.3258357E2,1.9295654E1,8.891649E-1,2.5372028E2,1.05669495E2,2.1122833E1,5.6250315E0,2.6444244E0,8.801484E0,4.9265625E1,2.1526588E1,3.0014832E1,1.2716286E1,1.7366943E1,0E0,0E0,0E0,7.0857056E1,6.3930393E1,1.4258575E1,6.4531555E1,1.0634363E1,7.2616014E0,1.2613869E1,3.483572E-1,0E0,0E0,0E0,0E0,8.355347E1,4.0859375E0,1.4287912E1,0E0,1.2319399E1,4.527397E0,8.140228E0,0E0,1.923761E1,3.2128906E0,5.791516E1,0E0,7.4979763E0,2.6636864E1,1.0655775E1,1.3011524E1,4.5278732E1,4.0973633E1,0E0,0E0,0E0,0E0,0E0,0E0,0E0,0E0,0E0,0E0,0E0,0E0,0E0,0E0,0E0,0E0,0E0,0E0,0E0,0E0,0E0,0E0,0E0,0E0,0E0,0E0,0E0,0E0,0E0,0E0,0E0,0E0,0E0,0E0,0E0,0E0,0E0,0E0],"parents":[2147483647,0,0,1,1,2,2,3,3,4,4,5,5,6,6,7,7,8,8,9,9,10,10,11,11,12,12,13,13,14,14,15,15,16,16,17,17,18,18,19,19,20,20,21,21,22,22,23,23,27,27,28,28,29,29,30,30,31,31,32,32,33,33,34,34,39,39,40,40,41,41,43,43,44,44,45,45,47,47,48,48,49,49,51,51,52,52,53,53,54,54,55,55,56,56],"right_children":[2,4,6,8,10,12,14,16,18,20,22,24,26,28,30,32,34,36,38,40,42,44,46,48,-1,-1,-1,50,52,54,56,58,60,62,64,-1,-1,-1,-1,66,68,70,-1,72,74,76,-1,78,80,82,-1,84,86,88,90,92,94,-1,-1,-1,-1,-1,-1,-1,-1,-1,-1,-1,-1,-1,-1,-1,-1,-1,-1,-1,-1,-1,-1,-1,-1,-1,-1,-1,-1,-1,-1,-1,-1,-1,-1,-1,-1,-1,-1],"split_conditions":[1E0,1E0,3E0,1E0,1E0,1E0,3.7E1,1E0,3E0,2E0,2.7E1,2E0,8.75E0,1E0,1E0,7.1E1,1.109E3,4.44E3,7.6E1,1E0,1E0,1.2E1,5E0,1E0,-2.3000623E-1,-6.605407E-2,-4.2778468E-1,8.989E3,7.2E1,3E0,4E0,2E0,3E0,9E1,4.283E3,5.562957E-1,1.3922542E-1,-2.992654E-1,4.1614914E-1,4E0,2.5E0,4E0,-3.741738E-1,1E0,7E0,1E0,3.339467E-1,5E0,2E0,4E0,-5.0676054E-1,1E0,5E0,3E0,5.263158E0,1E0,2.9E1,8.671242E-2,5.409943E-1,-4.7911897E-1,6.7524664E-2,-3.5077438E-1,2.1523169E-1,-2.2018251E-1,-4.848228E-1,-2.570195E-1,-5.424422E-1,-9.926496E-2,-5.867045E-1,5.488348E-1,-3.3272123E-1,-1.18971005E-1,4.5966813E-1,6.617452E-4,5.3620005E-1,-2.14986E-1,-5.4439354E-1,2.30483E-1,5.65251E-1,5.881345E-1,5.2885896E-1,5.3530324E-1,-5.3509563E-2,1.2099299E-1,5.0101256E-1,-3.8939234E-2,-4.5493388E-1,4.993348E-1,-6.580903E-2,2.1523169E-1,-4.1911882E-1,3.7603518E-1,-4.8994133E-1,-4.7429615E-1,4.6752572E-1],"split_indices":[82,83,83,41,7,49,54,19,5,48,54,60,46,19,80,54,79,79,1,19,10,44,4,76,0,0,0,79,80,39,37,37,13,79,0,0,0,0,0,83,46,5,0,21,37,19,0,13,83,5,0,48,83,5,68,19,42,0,0,0,0,0,0,0,0,0,0,0,0,0,0,0,0,0,0,0,0,0,0,0,0,0,0,0,0,0,0,0,0,0,0,0,0,0,0],"split_type":[0,0,0,0,0,0,0,0,0,0,0,0,0,0,0,0,0,0,0,0,0,0,0,0,0,0,0,0,0,0,0,0,0,0,0,0,0,0,0,0,0,0,0,0,0,0,0,0,0,0,0,0,0,0,0,0,0,0,0,0,0,0,0,0,0,0,0,0,0,0,0,0,0,0,0,0,0,0,0,0,0,0,0,0,0,0,0,0,0,0,0,0,0,0,0],"sum_hessian":[3.4002388E3,1.5857448E3,1.8144939E3,8.524972E1,1.500495E3,1.1264962E3,6.879977E2,4.6249847E1,3.899987E1,1.4157452E3,8.474972E1,1.1227462E3,3.7499876E0,4.6024847E2,2.2774924E2,2.5999912E1,2.0249933E1,3.4749886E1,4.2499857E0,1.4009954E3,1.474995E1,4.5499847E1,3.924987E1,1.1204962E3,2.2499924E0,1.2499958E0,2.4999917E0,3.8474872E2,7.549975E1,2.7249908E1,2.0049933E2,1.8499939E1,7.499975E0,1.2249959E1,7.9999733E0,3.2499893E1,2.2499924E0,1.9999933E0,2.2499924E0,4.6524844E2,9.357469E2,1.1749961E1,2.99999E0,1.7249943E1,2.8249907E1,3.7999874E1,1.2499958E0,6.549978E1,1.0549965E3,3.7924875E2,5.499982E0,1.9999933E1,5.5499813E1,1.7249943E1,9.999967E0,2.2249926E1,1.782494E2,9.499969E0,8.9999695E0,3.9999866E0,3.4999883E0,6.249979E0,5.99998E0,3.7499876E0,4.2499857E0,1.3149956E2,3.3374887E2,1.9999933E0,9.337469E2,1.0499965E1,1.2499958E0,1.3999953E1,3.249989E0,1.499995E0,2.674991E1,1.1499962E1,2.6499912E1,3.299989E1,3.2499893E1,8.3174725E2,2.2324925E2,3.6374878E2,1.54999485E1,8.9999695E0,1.0999964E1,2.5249916E1,3.0249899E1,1.3749954E1,3.4999883E0,5.99998E0,3.9999866E0,1.499995E1,7.2499757E0,1.7474942E2,3.4999883E0],"tree_param":{"num_deleted":"0","num_feature":"84","num_nodes":"95","size_leaf_vector":"1"}},{"base_weights":[6.915773E-5,-1.1891925E0,1.037044E0,5.505359E-1,-1.291104E0,1.4330003E0,4.0041623E-1,-3.360756E-2,1.2500275E0,-7.408154E-1,-1.470014E0,1.4422022E0,-9.385195E-1,9.9390715E-1,-7.889291E-1,3.3984986E-1,-7.3401415E-1,1.3722113E0,1.8573359E-1,-9.372962E-1,1.0608609E0,-1.475952E0,2.8832456E-1,1.4471962E0,-1.8417984E-1,-3.68775E-1,-1.9834617E-2,1.2475433E0,-2.5185242E-1,-1.0052829E0,6.3240707E-1,7.8715724E-1,-4.264796E-1,-1.3001716E0,8.4065944E-2,4.4295487E-1,1.20774E-1,3.3950713E-1,-3.7524778E-1,-1.0708297E0,5.3312105E-1,-5.288813E-1,1.3767475E0,-1.4800477E0,3.4649074E-1,1.0018123E0,1.4748107E0,1.288829E0,-4.020954E-1,6.487404E-1,-8.2426786E-1,-1.1412504E0,1.2559795E0,8.3011866E-1,-3.4147212E-1,3.2403818E-1,-1.4155264E-1,2.3959415E-1,-2.4611542E-1,-7.901151E-2,-4.5738623E-1,2.303071E-1,-3.7470102E-1,-1.8843864E-1,2.7179074E-1,-3.344839E-1,4.264146E-1,4.3050745E-1,-1.739126E-1,3.668421E-1,-3.860578E-1,4.6150905E-1,1.7875294E-1,-4.461054E-1,-9.103292E-2,1.6570337E-1,4.3661577E-1,4.5328876E-1,4.007058E-1,4.0293676E-1,-1.2482741E-1,2.7462876E-1,-3.5356987E-1,-3.2687882E-1,3.8788432E-1,3.6966884E-1,-3.694185E-1,4.7850084E-1,-1.8950589E-1,3.8163087E-1,-5.440526E-2],"categories":[],"categories_nodes":[],"categories_segments":[],"categories_sizes":[],"default_left":[0,0,0,0,0,0,0,0,0,0,0,0,0,0,0,0,0,0,0,0,0,0,0,0,0,0,0,0,0,0,0,0,0,0,0,0,0,0,0,0,0,0,0,0,0,0,0,0,0,0,0,0,0,0,0,0,0,0,0,0,0,0,0,0,0,0,0,0,0,0,0,0,0,0,0,0,0,0,0,0,0,0,0,0,0,0,0,0,0,0,0],"id":1,"left_children":[1,3,5,7,9,11,13,15,17,19,21,23,25,27,29,31,33,35,37,39,41,43,-1,45,-1,-1,-1,47,49,51,53,55,57,59,61,-1,63,-1,-1,65,67,69,71,73,-1,75,77,79,-1,81,83,85,87,89,-1,-1,-1,-1,-1,-1,-1,-1,-1,-1,-1,-1,-1,-1,-1,-1,-1,-1,-1,-1,-1,-1,-1,-1,-1,-1,-1,-1,-1,-1,-1,-1,-1,-1,-1,-1,-1],"loss_changes":[3.9053936E3,2.6224E2,4.2586658E2,3.3681557E1,1.3612915E2,2.4105957E1,4.5966196E2,1.2239105E1,4.620472E0,1.227599E2,1.6587402E1,1.1556885E1,1.0944881E0,1.3748447E2,6.7355774E1,1.0817974E1,7.639002E0,4.1910515E0,8.233807E0,6.1573547E1,1.7949108E1,1.3008789E1,0E0,1.1273682E1,0E0,0E0,0E0,4.02818E1,3.882093E1,5.94478E1,1.1194176E1,7.761382E0,6.407255E0,1.8484402E0,7.874388E0,0E0,2.7238655E0,0E0,0E0,3.293637E1,2.7462032E1,1.0080376E1,2.7289238E0,8.138428E0,0E0,1.2171371E1,2.8813477E0,3.348462E1,0E0,1.5416099E1,2.7164053E1,3.9711197E1,8.161251E0,1.2263035E1,0E0,0E0,0E0,0E0,0E0,0E0,0E0,0E0,0E0,0E0,0E0,0E0,0E0,0E0,0E0,0E0,0E0,0E0,0E0,0E0,0E0,0E0,0E0,0E0,0E0,0E0,0E0,0E0,0E0,0E0,0E0,0E0,0E0,0E0,0E0,0E0,0E0],"parents":[2147483647,0,0,1,1,2,2,3,3,4,4,5,5,6,6,7,7,8,8,9,9,10,10,11,11,12,12,13,13,14,14,15,15,16,16,17,17,18,18,19,19,20,20,21,21,23,23,27,27,28,28,29,29,30,30,31,31,32,32,33,33,34,34,36,36,39,39,40,40,41,41,42,42,43,43,45,45,46,46,47,47,49,49,50,50,51,51,52,52,53,53],"right_children":[2,4,6,8,10,12,14,16,18,20,22,24,26,28,30,32,34,36,38,40,42,44,-1,46,-1,-1,-1,48,50,52,54,56,58,60,62,-1,64,-1,-1,66,68,70,72,74,-1,76,78,80,-1,82,84,86,88,90,-1,-1,-1,-1,-1,-1,-1,-1,-1,-1,-1,-1,-1,-1,-1,-1,-1,-1,-1,-1,-1,-1,-1,-1,-1,-1,-1,-1,-1,-1,-1,-1,-1,-1,-1,-1,-1],"split_conditions":[1E0,1E0,3E0,1E0,3.3E1,1E0,3.7E1,5.2E1,1.5E1,1.6E1,1E0,2E0,1.49E2,1E0,1E0,1.109E3,2.8E1,5E0,1E0,1E0,1.4705882E-2,6E0,2.8832456E-1,1E0,-1.8417984E-1,-3.68775E-1,-1.9834617E-2,8.989E3,4.79E3,1E-1,8.369E3,1E0,1.2820512E-1,3.75E-1,9.666667E0,4.4295487E-1,7.6E1,3.3950713E-1,-3.7524778E-1,1E0,2E0,2E0,1E0,2E0,3.4649074E-1,5E0,2E0,5E0,-4.020954E-1,3E0,2.4E1,2.6E1,6E0,2E0,-3.4147212E-1,3.2403818E-1,-1.4155264E-1,2.3959415E-1,-2.4611542E-1,-7.901151E-2,-4.5738623E-1,2.303071E-1,-3.7470102E-1,-1.8843864E-1,2.7179074E-1,-3.344839E-1,4.264146E-1,4.3050745E-1,-1.739126E-1,3.668421E-1,-3.860578E-1,4.6150905E-1,1.7875294E-1,-4.461054E-1,-9.103292E-2,1.6570337E-1,4.3661577E-1,4.5328876E-1,4.007058E-1,4.0293676E-1,-1.2482741E-1,2.7462876E-1,-3.5356987E-1,-3.2687882E-1,3.8788432E-1,3.6966884E-1,-3.694185E-1,4.7850084E-1,-1.8950589E-1,3.8163087E-1,-5.440526E-2],"split_indices":[82,83,83,41,54,49,54,54,43,44,56,60,54,19,48,79,1,5,19,48,23,4,0,76,0,0,0,79,79,24,79,77,56,55,45,0,1,0,0,52,38,80,19,48,0,13,83,5,0,5,42,1,13,5,0,0,0,0,0,0,0,0,0,0,0,0,0,0,0,0,0,0,0,0,0,0,0,0,0,0,0,0,0,0,0,0,0,0,0,0,0],"split_type":[0,0,0,0,0,0,0,0,0,0,0,0,0,0,0,0,0,0,0,0,0,0,0,0,0,0,0,0,0,0,0,0,0,0,0,0,0,0,0,0,0,0,0,0,0,0,0,0,0,0,0,0,0,0,0,0,0,0,0,0,0,0,0,0,0,0,0,0,0,0,0,0,0,0,0,0,0,0,0,0,0,0,0,0,0,0,0,0,0,0,0],"sum_hessian":[3.1647886E3,1.4740815E3,1.6907072E3,8.13281E1,1.3927534E3,1.0416147E3,6.4909235E2,4.483689E1,3.649121E1,3.429756E2,1.0497778E3,1.0379791E3,3.6356497E0,4.3312466E2,2.1596765E2,2.9579733E1,1.5257159E1,3.2473812E1,4.0173984E0,3.0968304E2,3.3292545E1,1.0476119E3,2.1659508E0,1.0357596E3,2.2195609E0,2.4201066E0,1.2155432E0,3.5985657E2,7.3268105E1,1.8769041E2,2.827724E1,1.8660437E1,1.0919296E1,8.668661E0,6.5884976E0,2.98094E1,2.6644096E0,2.5502872E0,1.4671112E0,2.8415015E2,2.5532887E1,5.406969E0,2.7885576E1,1.0464203E3,1.1915839E0,6.264577E1,9.7311383E2,3.5469983E2,5.156751E0,2.8420391E1,4.4847713E1,1.7751208E2,1.0178326E1,2.591476E1,2.36248E0,1.5253104E1,3.407333E0,2.4066386E0,8.512658E0,1.9294317E0,6.739229E0,4.6354604E0,1.9530375E0,1.4661044E0,1.1983051E0,2.797507E2,4.3994484E0,1.3943065E1,1.1589821E1,1.4478159E0,3.9591532E0,2.2300325E1,5.5852513E0,1.0399957E3,6.424634E0,3.257922E1,3.0066551E1,7.645769E2,2.0853694E2,3.4395862E2,1.0741216E1,2.5236279E1,3.184114E0,4.0284634E1,4.5630817E0,6.031637E0,1.7148045E2,8.760065E0,1.4182606E0,1.785496E1,8.059801E0],"tree_param":{"num_deleted":"0","num_feature":"84","num_nodes":"91","size_leaf_vector":"1"}},{"base_weights":[1.4294324E-3,-9.8686165E-1,8.61705E-1,1.3102555E-1,-1.1070309E0,1.2148709E0,3.221214E-1,7.605819E-1,-6.338514E-1,-1.1828644E0,7.281166E-2,1.2234945E0,-7.8395754E-1,7.6705396E-1,-7.092014E-1,-7.8081864E-1,1.196626E0,-9.3854094E-1,2.7440935E-1,-1.2239115E0,-3.0741957E-1,9.525022E-1,-6.9876707E-1,1.2896343E0,1.0093386E0,-3.273756E-1,1.6092263E-2,9.107038E-1,-1.0020243E0,6.1804557E-1,-9.568868E-1,-1.0472755E0,5.839519E-1,1.4578993E0,1.3749209E-1,3.476872E-1,-1.1058323E0,1.0712912E0,-4.8093927E-1,-1.2315887E0,1.1646018E0,1.0433811E0,-9.106665E-1,1.2803901E0,-6.543178E-2,-9.635273E-1,9.151911E-1,7.1342576E-1,1.2935736E0,1.10588E0,2.7827024E-1,4.8349234E-1,1.2382009E0,3.5145837E-1,-1.2230177E0,-4.3371357E-2,1.291331E0,-1.0393717E0,4.7199175E-1,9.481209E-2,-3.787903E-1,3.0083352E-1,-4.111969E-2,4.7618273E-1,9.872404E-2,1.5286024E-1,-3.2443452E-1,3.4174204E-1,-1.8971297E-1,-3.590032E-1,-7.223461E-2,-3.5683665E-2,3.806949E-1,-3.5131714E-1,3.5823584E-2,-3.1422025E-1,-3.9712262E-1,-5.193114E-3,5.307619E-1,3.8614747E-1,-1.637305E-1,2.8838333E-1,-3.441088E-1,4.2117628E-1,9.148325E-2,-2.464375E-1,3.8644883E-1,-3.476108E-1,2.710215E-2,-6.1056167E-2,4.094026E-1,-1.9877589E-1,3.341872E-1,3.9136156E-1,3.1014806E-1,3.4729648E-1,-2.2197968E-1,-1.6090594E-1,2.6841125E-1,2.1967214E-1,-2.8522965E-1,1.3053855E-1,4.0468675E-1,3.9607236E-1,-1.6869965E-1,2.1448205E-1,-4.183505E-1,-4.5750698E-1,1.2803262E-1,-2.2354223E-2,4.2513892E-1,-3.4710285E-1,5.425178E-2],"categories":[],"categories_nodes":[],"categories_segments":[],"categories_sizes":[],"default_left":[0,0,0,0,0,0,0,0,0,0,0,0,0,0,0,0,0,0,0,0,0,0,0,0,0,0,0,0,0,0,0,0,0,0,0,0,0,0,0,0,0,0,0,0,0,0,0,0,0,0,0,0,0,0,0,0,0,0,0,0,0,0,0,0,0,0,0,0,0,0,0,0,0,0,0,0,0,0,0,0,0,0,0,0,0,0,0,0,0,0,0,0,0,0,0,0,0,0,0,0,0,0,0,0,0,0,0,0,0,0,0,0,0],"id":2,"left_children":[1,3,5,7,9,11,13,15,17,19,21,23,25,27,29,31,33,35,37,39,41,43,45,47,49,-1,-1,51,53,55,57,59,61,63,65,67,69,71,73,75,77,79,81,83,85,87,89,91,93,95,97,99,101,103,105,107,109,111,-1,-1,-1,-1,-1,-1,-1,-1,-1,-1,-1,-1,-1,-1,-1,-1,-1,-1,-1,-1,-1,-1,-1,-1,-1,-1,-1,-1,-1,-1,-1,-1,-1,-1,-1,-1,-1,-1,-1,-1,-1,-1,-1,-1,-1,-1,-1,-1,-1,-1,-1,-1,-1,-1,-1],"loss_changes":[2.337537E3,1.7202698E2,2.797151E2,6.0714935E1,1.034624E2,1.6266602E1,2.6799158E2,4.7355362E1,1.6036806E1,3.8637573E1,4.866699E1,1.12282715E1,1.1973228E0,1.0450951E2,5.8509933E1,6.369982E0,1.480674E1,9.620247E0,9.602308E0,2.0444824E1,4.1661182E1,1.12544E1,1.7227375E1,6.031494E-1,1.4749527E1,0E0,0E0,5.2226685E1,9.729795E0,1.2665532E1,3.2704407E1,4.3938932E0,1.1124285E0,5.815407E0,5.9182363E0,5.1423883E0,2.7154884E0,1.9524508E0,3.6368494E0,1.6162354E1,2.7714968E0,6.858103E0,1.6619923E1,2.6280441E0,1.0376185E1,6.964096E0,3.2463121E0,4.4829254E0,5.4956055E-1,1.8834473E1,1.3647892E1,5.9734562E1,1.8365662E1,5.2934275E0,9.953632E0,1.1274696E1,2.52215E0,2.098996E1,0E0,0E0,0E0,0E0,0E0,0E0,0E0,0E0,0E0,0E0,0E0,0E0,0E0,0E0,0E0,0E0,0E0,0E0,0E0,0E0,0E0,0E0,0E0,0E0,0E0,0E0,0E0,0E0,0E0,0E0,0E0,0E0,0E0,0E0,0E0,0E0,0E0,0E0,0E0,0E0,0E0,0E0,0E0,0E0,0E0,0E0,0E0,0E0,0E0,0E0,0E0,0E0,0E0,0E0,0E0],"parents":[2147483647,0,0,1,1,2,2,3,3,4,4,5,5,6,6,7,7,8,8,9,9,10,10,11,11,12,12,13,13,14,14,15,15,16,16,17,17,18,18,19,19,20,20,21,21,22,22,23,23,24,24,27,27,28,28,29,29,30,30,31,31,32,32,33,33,34,34,35,35,36,36,37,37,38,38,39,39,40,40,41,41,42,42,43,43,44,44,45,45,46,46,47,47,48,48,49,49,50,50,51,51,52,52,53,53,54,54,55,55,56,56,57,57],"right_children":[2,4,6,8,10,12,14,16,18,20,22,24,26,28,30,32,34,36,38,40,42,44,46,48,50,-1,-1,52,54,56,58,60,62,64,66,68,70,72,74,76,78,80,82,84,86,88,90,92,94,96,98,100,102,104,106,108,110,112,-1,-1,-1,-1,-1,-1,-1,-1,-1,-1,-1,-1,-1,-1,-1,-1,-1,-1,-1,-1,-1,-1,-1,-1,-1,-1,-1,-1,-1,-1,-1,-1,-1,-1,-1,-1,-1,-1,-1,-1,-1,-1,-1,-1,-1,-1,-1,-1,-1,-1,-1,-1,-1,-1,-1],"split_conditions":[1E0,2E0,3E0,1E0,1E0,1E0,1E0,3E0,1E0,1E0,1.3E1,2E0,7.164179E1,1.31E2,2E0,9.433962E-3,1.177815E6,3E0,1.7E1,3.2E1,2E0,1E0,9.3E1,-1E0,3.148148E-1,-3.273756E-1,1.6092263E-2,4.871795E-1,1.3E1,1E0,9E0,1E0,2.69E2,1.1E1,4.7E1,2.54E2,4.439212E6,1E0,1.73E2,1E0,3E0,5.847953E-3,3E0,8.369E3,1E0,5E0,5E-2,2.5E-1,4E0,4E0,1.1E1,3E0,1E0,3.9E1,1E0,4.31E2,4.3333335E0,6.630435E-1,4.7199175E-1,9.481209E-2,-3.787903E-1,3.0083352E-1,-4.111969E-2,4.7618273E-1,9.872404E-2,1.5286024E-1,-3.2443452E-1,3.4174204E-1,-1.8971297E-1,-3.590032E-1,-7.223461E-2,-3.5683665E-2,3.806949E-1,-3.5131714E-1,3.5823584E-2,-3.1422025E-1,-3.9712262E-1,-5.193114E-3,5.307619E-1,3.8614747E-1,-1.637305E-1,2.8838333E-1,-3.441088E-1,4.2117628E-1,9.148325E-2,-2.464375E-1,3.8644883E-1,-3.476108E-1,2.710215E-2,-6.1056167E-2,4.094026E-1,-1.9877589E-1,3.341872E-1,3.9136156E-1,3.1014806E-1,3.4729648E-1,-2.2197968E-1,-1.6090594E-1,2.6841125E-1,2.1967214E-1,-2.8522965E-1,1.3053855E-1,4.0468675E-1,3.9607236E-1,-1.6869965E-1,2.1448205E-1,-4.183505E-1,-4.5750698E-1,1.2803262E-1,-2.2354223E-2,4.2513892E-1,-3.4710285E-1,5.425178E-2],"split_indices":[82,83,83,19,7,49,19,13,41,48,54,83,68,54,80,23,80,13,54,42,80,22,1,79,60,0,0,56,2,48,38,22,78,39,54,79,80,54,78,19,4,62,83,79,5,13,23,55,5,5,42,5,76,1,80,79,47,56,0,0,0,0,0,0,0,0,0,0,0,0,0,0,0,0,0,0,0,0,0,0,0,0,0,0,0,0,0,0,0,0,0,0,0,0,0,0,0,0,0,0,0,0,0,0,0,0,0,0,0,0,0,0,0],"split_type":[0,0,0,0,0,0,0,0,0,0,0,0,0,0,0,0,0,0,0,0,0,0,0,0,0,0,0,0,0,0,0,0,0,0,0,0,0,0,0,0,0,0,0,0,0,0,0,0,0,0,0,0,0,0,0,0,0,0,0,0,0,0,0,0,0,0,0,0,0,0,0,0,0,0,0,0,0,0,0,0,0,0,0,0,0,0,0,0,0,0,0,0,0,0,0,0,0,0,0,0,0,0,0,0,0,0,0,0,0,0,0,0,0],"sum_hessian":[2.747388E3,1.2784955E3,1.4688923E3,1.2408555E2,1.1544099E3,8.8705164E2,5.818407E2,6.8066696E1,5.6018852E1,1.0846897E3,6.972027E1,8.8362726E2,3.4243755E0,4.066572E2,1.7518352E2,1.4834956E1,5.323174E1,4.1922115E1,1.4096735E1,1.0357292E3,4.896035E1,3.246821E1,3.725206E1,6.71286E2,2.1234128E2,2.2837052E0,1.1406702E0,3.765652E2,3.0092022E1,2.7315493E1,1.4786803E2,1.26063385E1,2.2286177E0,4.23966E1,1.0835142E1,4.7008758E0,3.722124E1,6.6562324E0,7.4405026E0,1.0328937E3,2.835591E0,1.4889631E1,3.4070717E1,2.4362835E1,8.105372E0,3.2348488E1,4.9035745E0,5.794748E0,6.654913E2,1.871186E2,2.522267E1,1.6448073E2,2.1208446E2,4.140852E0,2.595117E1,1.4251146E1,1.3064346E1,1.437703E2,4.097737E0,1.6559485E0,1.095039E1,1.1625376E0,1.06608E0,3.767271E1,4.723887E0,8.747299E0,2.087843E0,2.510889E0,2.1899867E0,3.333694E1,3.8843007E0,1.0048268E0,5.6514053E0,3.0192194E0,4.4212832E0,3.485694E2,6.843243E2,1.2883759E0,1.5472153E0,1.3074087E1,1.8155437E0,3.4758372E0,3.0594881E1,2.1234438E1,3.1283965E0,5.452886E0,2.6524866E0,2.7209785E1,5.1387024E0,1.5623322E0,3.3412423E0,1.1589495E0,4.635798E0,6.3467694E2,3.0814308E1,1.823758E2,4.7428036E0,1.0920729E1,1.430194E1,1.4058762E2,2.3893108E1,2.6301765E1,1.8578268E2,1.7940447E0,2.3468072E0,1.8520315E0,2.4099138E1,2.8923342E0,1.1358812E1,1.1361701E0,1.1928176E1,1.3117575E2,1.2594547E1],"tree_param":{"num_deleted":"0","num_feature":"84","num_nodes":"113","size_leaf_vector":"1"}},{"base_weights":[2.079696E-3,-8.5342324E-1,7.3876196E-1,-3.310088E-1,-1.0816525E0,1.072916E0,2.6377758E-1,1.8916711E-1,-8.370442E-1,-1.787724E-1,-1.1485127E0,1.1581045E0,8.1885594E-1,7.191437E-1,-5.224704E-1,-8.050722E-1,4.0193126E-1,-9.6693504E-1,4.1911712E-1,7.148856E-1,-5.1578856E-1,-1.1554189E0,7.9284537E-1,7.981382E-1,1.1734859E0,6.1548007E-1,1.2354947E0,3.174487E-1,1.144997E0,-6.156126E-1,1.3155404E0,-9.85247E-1,4.460947E-1,1.1124616E0,-4.577878E-3,-9.9479663E-1,2.2356859E-1,9.4736165E-1,-4.4030333E-1,1.2506403E0,6.131081E-2,-7.427193E-1,7.0147556E-1,4.5836848E-1,-1.1634558E0,6.559433E-2,2.9168528E-1,8.834623E-2,1.0847211E0,5.973145E-1,1.1780628E0,7.180046E-1,-1.099833E0,3.752211E-1,6.1350875E-2,-4.779905E-2,1.1988939E0,1.1699576E0,-3.461648E-1,-7.387434E-1,7.800172E-1,4.6077764E-1,-4.2841524E-2,-1.2014918E-2,-3.368097E-1,3.875895E-1,-1.3167816E-1,2.454701E-1,-1.4053434E-1,-3.0566326E-1,2.6821965E-1,3.886235E-1,-9.1847986E-2,-3.3704144E-1,1.2722744E-1,4.179617E-1,1.3248251E-1,2.296017E-1,-2.7341866E-1,-5.921411E-2,-3.0645853E-1,2.9294726E-1,-7.020836E-2,-2.4355243E-1,4.7642496E-1,-3.5055318E-1,1.6940588E-1,3.351351E-1,-2.4780539E-1,3.5111326E-1,2.7376117E-2,-2.1785998E-1,3.0432752E-1,3.5445508E-1,1.6688955E-1,2.6085848E-1,-4.563748E-2,-6.476306E-1,5.197471E-2,2.7811825E-1,-1.1994501E-1,3.9568236E-1,1.1173908E-1,1.09036215E-1,3.680541E-1,-2.6281673E-1,2.2325245E-1,4.1549852E-1,-2.2546762E-1],"categories":[],"categories_nodes":[],"categories_segments":[],"categories_sizes":[],"default_left":[0,0,0,0,0,0,0,0,0,0,0,0,0,0,0,0,0,0,0,0,0,0,0,0,0,0,0,0,0,0,0,0,0,0,0,0,0,0,0,0,0,0,0,0,0,0,0,0,0,0,0,0,0,0,0,0,0,0,0,0,0,0,0,0,0,0,0,0,0,0,0,0,0,0,0,0,0,0,0,0,0,0,0,0,0,0,0,0,0,0,0,0,0,0,0,0,0,0,0,0,0,0,0,0,0,0,0,0,0],"id":3,"left_children":[1,3,5,7,9,11,13,15,17,19,21,23,25,27,29,31,33,35,37,39,41,43,45,47,49,51,53,55,57,59,61,63,-1,65,67,69,-1,71,73,75,77,79,81,83,85,-1,-1,87,89,91,93,95,97,-1,-1,99,101,103,-1,105,107,-1,-1,-1,-1,-1,-1,-1,-1,-1,-1,-1,-1,-1,-1,-1,-1,-1,-1,-1,-1,-1,-1,-1,-1,-1,-1,-1,-1,-1,-1,-1,-1,-1,-1,-1,-1,-1,-1,-1,-1,-1,-1,-1,-1,-1,-1,-1,-1],"loss_changes":[1.4634146E3,1.2773895E2,1.9774152E2,8.652237E1,4.490497E1,1.4896057E1,1.8532536E2,3.4720478E1,2.7570923E1,1.6242584E1,1.0241821E1,2.0855713E0,1.5105629E1,5.566655E1,3.3343117E1,1.3439489E1,3.888476E1,7.9537964E0,7.8171396E0,5.124006E0,1.1253698E1,9.528137E0,1.0255849E-1,5.090008E0,6.7108154E-1,2.326796E1,6.938095E-1,5.476702E1,1.0450989E1,3.1774742E1,3.267603E0,3.525755E0,0E0,1.4209808E1,3.3443283E1,7.697418E0,0E0,4.939432E0,4.5438313E0,3.2019806E-1,5.9994283E0,4.8514614E0,1.9315648E0,7.2502723E0,6.6901855E0,0E0,0E0,8.844515E0,1.431118E0,4.1247754E0,4.5129395E-1,1.6113785E1,1.062478E1,0E0,0E0,4.1931683E1,4.4518814E0,6.775772E0,0E0,3.4727203E1,1.5129647E1,0E0,0E0,0E0,0E0,0E0,0E0,0E0,0E0,0E0,0E0,0E0,0E0,0E0,0E0,0E0,0E0,0E0,0E0,0E0,0E0,0E0,0E0,0E0,0E0,0E0,0E0,0E0,0E0,0E0,0E0,0E0,0E0,0E0,0E0,0E0,0E0,0E0,0E0,0E0,0E0,0E0,0E0,0E0,0E0,0E0,0E0,0E0,0E0],"parents":[2147483647,0,0,1,1,2,2,3,3,4,4,5,5,6,6,7,7,8,8,9,9,10,10,11,11,12,12,13,13,14,14,15,15,16,16,17,17,18,18,19,19,20,20,21,21,22,22,23,23,24,24,25,25,26,26,27,27,28,28,29,29,30,30,31,31,33,33,34,34,35,35,37,37,38,38,39,39,40,40,41,41,42,42,43,43,44,44,47,47,48,48,49,49,50,50,51,51,52,52,55,55,56,56,57,57,59,59,60,60],"right_children":[2,4,6,8,10,12,14,16,18,20,22,24,26,28,30,32,34,36,38,40,42,44,46,48,50,52,54,56,58,60,62,64,-1,66,68,70,-1,72,74,76,78,80,82,84,86,-1,-1,88,90,92,94,96,98,-1,-1,100,102,104,-1,106,108,-1,-1,-1,-1,-1,-1,-1,-1,-1,-1,-1,-1,-1,-1,-1,-1,-1,-1,-1,-1,-1,-1,-1,-1,-1,-1,-1,-1,-1,-1,-1,-1,-1,-1,-1,-1,-1,-1,-1,-1,-1,-1,-1,-1,-1,-1,-1,-1],"split_conditions":[1E0,3.6E1,3E0,1E0,2E0,2E0,3.2E1,3E0,1E0,5.2E1,3.2E1,1E0,1E0,1E0,5E0,3E0,3E0,2E0,1.1E1,1E0,3E0,7E0,4E0,3.9E1,-1E0,3E0,1.417E3,1.6666668E-2,1.8E1,1.1666667E1,6E0,1E0,4.460947E-1,1.3E1,4.8E1,1E0,2.2356859E-1,1E0,8.0225986E-1,7.6E1,1E0,1E0,1.28E2,4.090909E0,5E0,6.559433E-2,2.9168528E-1,7.647059E1,2.631579E-1,1.875E-1,1.4E1,2.9411766E-1,1.2E1,3.752211E-1,6.1350875E-2,4E0,2.5925926E1,4.090909E0,-3.461648E-1,3.8461536E-2,2E0,4.6077764E-1,-4.2841524E-2,-1.2014918E-2,-3.368097E-1,3.875895E-1,-1.3167816E-1,2.454701E-1,-1.4053434E-1,-3.0566326E-1,2.6821965E-1,3.886235E-1,-9.1847986E-2,-3.3704144E-1,1.2722744E-1,4.179617E-1,1.3248251E-1,2.296017E-1,-2.7341866E-1,-5.921411E-2,-3.0645853E-1,2.9294726E-1,-7.020836E-2,-2.4355243E-1,4.7642496E-1,-3.5055318E-1,1.6940588E-1,3.351351E-1,-2.4780539E-1,3.5111326E-1,2.7376117E-2,-2.1785998E-1,3.0432752E-1,3.5445508E-1,1.6688955E-1,2.6085848E-1,-4.563748E-2,-6.476306E-1,5.197471E-2,2.7811825E-1,-1.1994501E-1,3.9568236E-1,1.1173908E-1,1.09036215E-1,3.680541E-1,-2.6281673E-1,2.2325245E-1,4.1549852E-1,-2.2546762E-1],"split_indices":[82,54,83,19,83,83,54,13,7,54,44,76,48,64,4,4,83,48,54,19,4,2,4,1,79,5,78,24,5,46,83,83,0,39,80,52,0,35,55,72,83,38,54,45,4,0,0,65,23,55,39,60,42,0,0,83,72,46,0,24,5,0,0,0,0,0,0,0,0,0,0,0,0,0,0,0,0,0,0,0,0,0,0,0,0,0,0,0,0,0,0,0,0,0,0,0,0,0,0,0,0,0,0,0,0,0,0,0,0],"split_type":[0,0,0,0,0,0,0,0,0,0,0,0,0,0,0,0,0,0,0,0,0,0,0,0,0,0,0,0,0,0,0,0,0,0,0,0,0,0,0,0,0,0,0,0,0,0,0,0,0,0,0,0,0,0,0,0,0,0,0,0,0,0,0,0,0,0,0,0,0,0,0,0,0,0,0,0,0,0,0,0,0,0,0,0,0,0,0,0,0,0,0,0,0,0,0,0,0,0,0,0,0,0,0,0,0,0,0,0,0],"sum_hessian":[2.320018E3,1.0733672E3,1.2466509E3,3.2709665E2,7.4627057E2,7.3107605E2,5.1557477E2,1.6160352E2,1.6549313E2,5.170604E1,6.945645E2,5.4483105E2,1.8624496E2,3.2654007E2,1.8903471E2,2.799588E1,1.3360764E2,1.5019298E2,1.5300158E1,1.38524885E1,3.785355E1,6.9250586E2,2.058682E0,2.4493984E1,5.203371E2,1.26817955E2,5.9427013E1,1.6893452E2,1.5760553E2,1.805503E2,8.484418E0,2.648415E1,1.5117313E0,4.7990044E1,8.561759E1,1.4820033E2,1.9926413E0,9.41245E0,5.8877077E0,7.110369E0,6.74212E0,3.2234093E1,5.619457E0,3.1540804E0,6.8935175E2,1.0183878E0,1.0402942E0,7.421388E0,1.7072596E1,5.1372857E0,5.151998E2,1.2021415E2,6.6038027E0,5.8351208E1,1.0758076E0,1.201099E2,4.882462E1,1.5639848E2,1.207054E0,1.6634502E2,1.4205276E1,7.3243647E0,1.1600537E0,3.5263484E0,2.29578E1,4.316308E1,4.8269625E0,3.0591146E1,5.5026447E1,1.467895E2,1.4108213E0,7.3408017E0,2.0716481E0,3.1211834E0,2.7665243E0,5.4312286E0,1.6791407E0,4.0349083E0,2.7072113E0,1.1482582E1,2.0751513E1,4.3089247E0,1.3105321E0,1.6171691E0,1.5369112E0,6.8766425E2,1.6875293E0,3.3878753E0,4.033513E0,1.5553504E1,1.5190915E0,1.0534877E0,4.083798E0,5.1145828E2,3.7415237E0,1.02385506E2,1.7828642E1,3.2253172E0,3.3784852E0,3.1431507E1,8.86784E1,4.211155E1,6.71307E0,1.0792019E1,1.4560646E2,1.5262207E2,1.3722955E1,1.02515745E1,3.9537015E0],"tree_param":{"num_deleted":"0","num_feature":"84","num_nodes":"109","size_leaf_vector":"1"}},{"base_weights":[4.6615903E-3,-7.457716E-1,6.426223E-1,-3.2781675E-1,-1.0125223E0,9.6646106E-1,2.2266066E-1,1.2741312E-1,-7.610194E-1,-3.5834295E-1,-1.05873E0,1.0669118E0,6.905411E-1,9.1759926E-1,-1.7962107E-1,6.9365466E-1,-2.0736472E-1,2.2407249E-1,-8.746007E-1,-9.2688866E-2,-1.0197971E0,4.4399014E-1,-1.0686247E0,6.8406785E-1,1.085117E0,5.0863045E-1,3.498024E-1,5.663596E-1,1.1777714E0,6.1130786E-1,-5.422486E-1,-3.5879582E-1,1.1589459E0,-4.1180444E-1,9.91244E-1,4.633496E-1,-7.6584345E-1,-9.7189605E-1,1.6003731E-1,4.0482572E-1,-6.1566085E-1,-3.5084775E-1,6.147663E-2,3.552252E-1,-2.1452866E-1,-1.0754966E0,1.8458264E-1,8.809508E-2,9.650224E-1,1.0987748E0,7.4120843E-1,1.9464011E-1,1.0707996E0,-8.38991E-2,1.1539239E0,3.6058575E-1,4.792918E-1,9.4554687E-1,-5.361837E-1,-7.702736E-1,6.758674E-1,5.242032E-2,-2.7404177E-1,1.5690963E-1,5.5273944E-1,-1.8440267E-1,1.7730871E-1,3.7441966E-1,-2.2076495E-1,-1.7399701E-1,2.1393779E-1,-2.9299682E-1,-1.5627772E-2,-1.7731535E-1,-3.2073846E-1,2.2783387E-1,-1.870667E-1,-2.4947174E-1,2.7318606E-1,2.1409835E-1,-2.4673317E-1,-3.2860044E-1,-1.6785048E-1,2.8549063E-1,-2.5225824E-1,3.1727874E-1,2.2585025E-2,3.3094928E-1,9.847929E-2,2.9769534E-1,-3.91547E-1,1.3092273E-1,-2.4362741E-1,-9.627008E-2,3.4140256E-1,-1.0573198E-1,3.382001E-1,3.5789582E-1,1.3420764E-1,-2.619843E-1,3.392717E-1,3.4317985E-1,-2.405983E-2,1.9373098E-1,-2.5117388E-1,-2.816162E-1,8.863019E-2,3.917637E-1,-3.136323E-1],"categories":[],"categories_nodes":[],"categories_segments":[],"categories_sizes":[],"default_left":[0,0,0,0,0,0,0,0,0,0,0,0,0,0,0,0,0,0,0,0,0,0,0,0,0,0,0,0,0,0,0,0,0,0,0,0,0,0,0,0,0,0,0,0,0,0,0,0,0,0,0,0,0,0,0,0,0,0,0,0,0,0,0,0,0,0,0,0,0,0,0,0,0,0,0,0,0,0,0,0,0,0,0,0,0,0,0,0,0,0,0,0,0,0,0,0,0,0,0,0,0,0,0,0,0,0,0,0,0],"id":4,"left_children":[1,3,5,7,9,11,13,15,17,19,21,23,25,27,29,31,33,35,37,39,41,43,45,47,49,51,-1,53,55,57,59,61,63,65,67,69,71,73,75,77,79,-1,-1,-1,-1,81,-1,83,85,87,89,91,93,95,97,-1,99,101,103,105,107,-1,-1,-1,-1,-1,-1,-1,-1,-1,-1,-1,-1,-1,-1,-1,-1,-1,-1,-1,-1,-1,-1,-1,-1,-1,-1,-1,-1,-1,-1,-1,-1,-1,-1,-1,-1,-1,-1,-1,-1,-1,-1,-1,-1,-1,-1,-1,-1],"loss_changes":[9.342693E2,9.964133E1,1.4323538E2,6.928117E1,1.6151855E1,1.5761414E1,1.2891269E2,3.273347E1,2.032492E1,6.5110416E0,8.061951E0,2.286377E0,1.3392998E1,1.4777863E1,8.423064E1,3.1808779E1,2.7071562E1,4.9487104E0,1.6413857E1,7.513697E0,2.1961336E0,4.3162627E0,6.53125E0,3.6709356E0,1.1260071E0,2.0749235E1,0E0,2.831106E1,1.048172E0,3.595584E1,5.637727E1,6.201687E0,1.8461346E1,1.941853E1,8.081292E0,4.646337E0,5.7391334E-1,4.8399506E0,7.3973227E0,1.0082462E1,4.4376383E0,0E0,0E0,0E0,0E0,4.562195E0,0E0,7.4480762E0,1.1677561E0,9.747009E-1,1.09827E1,1.9193914E1,4.324238E0,1.2102028E1,5.388603E-1,0E0,5.2895775E0,1.47309265E1,8.186665E0,3.0768906E1,3.632894E1,0E0,0E0,0E0,0E0,0E0,0E0,0E0,0E0,0E0,0E0,0E0,0E0,0E0,0E0,0E0,0E0,0E0,0E0,0E0,0E0,0E0,0E0,0E0,0E0,0E0,0E0,0E0,0E0,0E0,0E0,0E0,0E0,0E0,0E0,0E0,0E0,0E0,0E0,0E0,0E0,0E0,0E0,0E0,0E0,0E0,0E0,0E0,0E0],"parents":[2147483647,0,0,1,1,2,2,3,3,4,4,5,5,6,6,7,7,8,8,9,9,10,10,11,11,12,12,13,13,14,14,15,15,16,16,17,17,18,18,19,19,20,20,21,21,22,22,23,23,24,24,25,25,27,27,28,28,29,29,30,30,31,31,32,32,33,33,34,34,35,35,36,36,37,37,38,38,39,39,40,40,45,45,47,47,48,48,49,49,50,50,51,51,52,52,53,53,54,54,56,56,57,57,58,58,59,59,60,60],"right_children":[2,4,6,8,10,12,14,16,18,20,22,24,26,28,30,32,34,36,38,40,42,44,46,48,50,52,-1,54,56,58,60,62,64,66,68,70,72,74,76,78,80,-1,-1,-1,-1,82,-1,84,86,88,90,92,94,96,98,-1,100,102,104,106,108,-1,-1,-1,-1,-1,-1,-1,-1,-1,-1,-1,-1,-1,-1,-1,-1,-1,-1,-1,-1,-1,-1,-1,-1,-1,-1,-1,-1,-1,-1,-1,-1,-1,-1,-1,-1,-1,-1,-1,-1,-1,-1,-1,-1,-1,-1,-1,-1],"split_conditions":[1E0,4.8E1,3E0,1E0,2E0,2E0,2E0,1.974E3,1E0,1.177815E6,7E0,1E0,6E0,1E0,5E0,2E0,8.181818E-1,1.7E1,1E0,1E0,3E0,2.6666668E-1,3.2E1,3.9E1,1.1E2,8.166667E0,3.498024E-1,1E0,8.461539E1,1E0,1E0,1E0,3.22E2,1E0,1.104748E6,8.9E1,2.8E1,1.182E3,1.1E1,3E0,8.37E2,-3.5084775E-1,6.147663E-2,3.552252E-1,-2.1452866E-1,1E0,1.8458264E-1,1E0,2.631579E-1,1.4E1,9.709091E-1,6E1,3.1E1,9.3023255E-2,1E0,3.6058575E-1,1E0,2.173913E1,1.7E1,1.337106E6,1E0,5.242032E-2,-2.7404177E-1,1.5690963E-1,5.5273944E-1,-1.8440267E-1,1.7730871E-1,3.7441966E-1,-2.2076495E-1,-1.7399701E-1,2.1393779E-1,-2.9299682E-1,-1.5627772E-2,-1.7731535E-1,-3.2073846E-1,2.2783387E-1,-1.870667E-1,-2.4947174E-1,2.7318606E-1,2.1409835E-1,-2.4673317E-1,-3.2860044E-1,-1.6785048E-1,2.8549063E-1,-2.5225824E-1,3.1727874E-1,2.2585025E-2,3.3094928E-1,9.847929E-2,2.9769534E-1,-3.91547E-1,1.3092273E-1,-2.4362741E-1,-9.627008E-2,3.4140256E-1,-1.0573198E-1,3.382001E-1,3.5789582E-1,1.3420764E-1,-2.619843E-1,3.392717E-1,3.4317985E-1,-2.405983E-2,1.9373098E-1,-2.5117388E-1,-2.816162E-1,8.863019E-2,3.917637E-1,-3.136323E-1],"split_indices":[82,54,83,19,83,83,80,79,83,80,2,76,13,33,37,37,56,43,7,19,4,60,44,1,54,45,0,48,68,19,7,80,79,48,80,78,54,79,54,13,0,0,0,0,0,9,0,19,23,39,55,1,1,23,75,0,38,72,54,80,49,0,0,0,0,0,0,0,0,0,0,0,0,0,0,0,0,0,0,0,0,0,0,0,0,0,0,0,0,0,0,0,0,0,0,0,0,0,0,0,0,0,0,0,0,0,0,0,0],"split_type":[0,0,0,0,0,0,0,0,0,0,0,0,0,0,0,0,0,0,0,0,0,0,0,0,0,0,0,0,0,0,0,0,0,0,0,0,0,0,0,0,0,0,0,0,0,0,0,0,0,0,0,0,0,0,0,0,0,0,0,0,0,0,0,0,0,0,0,0,0,0,0,0,0,0,0,0,0,0,0,0,0,0,0,0,0,0,0,0,0,0,0,0,0,0,0,0,0,0,0,0,0,0,0,0,0,0,0,0,0],"sum_hessian":[1.949488E3,8.957033E2,1.0537848E3,3.4982062E2,5.458827E2,5.94249E2,4.5953574E2,1.7091788E2,1.7890274E2,3.6591858E1,5.092908E2,4.335464E2,1.6070264E2,1.6801321E2,2.9152252E2,6.3107014E1,1.0781086E2,1.8394476E1,1.6050827E2,2.6920244E1,9.671615E0,3.0445323E0,5.0624628E2,2.1431438E1,4.1211496E2,1.1772973E2,4.297291E1,7.2845985E1,9.516722E1,9.142631E1,2.000962E2,1.9416767E1,4.3690247E1,9.266241E1,1.5148456E1,1.5242154E1,3.1523209E0,1.4676721E2,1.3741058E1,1.3911677E1,1.3008568E1,8.658405E0,1.0132092E0,1.8449419E0,1.1995904E0,5.0454858E2,1.6976933E0,7.28716E0,1.4144279E1,3.9426245E2,1.7852491E1,7.6402565E1,4.1327164E1,3.4985104E1,3.786088E1,9.1286125E1,3.8810966E0,7.0939255E1,2.0487051E1,1.6885507E2,3.1241146E1,1.0246186E1,9.170581E0,2.3547739E1,2.0142508E1,7.739302E1,1.5269387E1,1.3428962E1,1.7194933E0,2.688789E0,1.2553366E1,2.1491945E0,1.0031265E0,3.1289461E1,1.15477745E2,7.802985E0,5.9380727E0,3.8518538E0,1.0059824E1,1.4211746E0,1.1587393E1,4.8478732E2,1.9761261E1,3.7638965E0,3.5232635E0,1.2640439E1,1.5038395E0,3.9159988E2,2.6625721E0,1.6360033E1,1.4924566E0,6.2064205E1,1.4338361E1,1.7299637E0,3.9597202E1,2.9216562E1,5.7685423E0,3.5225056E1,2.6358278E0,1.1512448E0,2.7298517E0,5.9346115E1,1.15931425E1,3.9265769E0,1.6560474E1,1.4591132E2,2.2943756E1,2.3047089E1,8.194058E0],"tree_param":{"num_deleted":"0","num_feature":"84","num_nodes":"109","size_leaf_vector":"1"}},{"base_weights":[6.4399457E-3,-6.5630937E-1,5.6647635E-1,-2.480655E-1,-9.1441095E-1,9.935365E-1,2.9553658E-1,1.11356415E-1,-6.3476115E-1,-2.1266758E-1,-9.7499144E-1,5.86222E-1,1.0153509E0,5.651751E-1,-3.128756E-1,-5.517309E-2,1.143422E0,1.6464812E-1,-7.4407166E-1,1.6819913E-2,-8.787673E-1,-7.759034E-1,-1.0795362E0,1.0206616E0,1.347149E-1,3.061254E-1,1.0225035E0,3.6007497E-1,1.0681589E0,-6.336946E-1,7.2111034E-1,-2.101737E-1,1.1217037E0,1.7056205E0,2.3589109E-1,-1.8201368E-1,7.5007975E-1,-8.450551E-1,1.2400964E-1,4.394112E-1,-4.794386E-1,-3.0443978E-1,-2.0074831E-2,-3.490158E-1,-1.0063636E0,-3.2702652E-1,2.1129203E-1,3.3497941E-1,5.4075908E-2,7.4690884E-1,-1.2129635E0,-2.3923312E-1,2.4844395E-1,1.0396264E0,6.556941E-1,5.8216203E-2,8.5471433E-1,3.0196646E-1,1.1115422E0,-7.48358E-1,8.7118345E-1,1.1676962E0,-3.6873538E-2,1.083182E-1,-1.6676098E-1,6.5492935E-2,3.683675E-1,8.668147E-3,5.7571065E-1,-9.5451035E-2,3.6321464E-1,-2.2333509E-1,1.9738887E-1,3.111722E-1,-1.1083256E-1,-3.0728155E-1,-1.4435655E-1,1.5668106E-1,-2.2158004E-1,-4.717709E-2,3.65899E-1,-2.7909333E-1,3.9434014E-3,-2.9038936E-1,4.8200164E-2,1.7762646E-1,-3.1434798E-1,3.126645E-1,-3.3444762E-3,-4.6050593E-1,-6.61533E-2,3.152821E-1,1.5124391E-1,-1.9846016E-1,3.141765E-1,2.106738E-1,-1.0803239E-1,2.7478105E-1,-2.3604755E-1,2.9173383E-1,-3.690399E-1,3.4088397E-1,-1.4519279E-2,-2.4801397E-1,2.6478875E-1,3.348018E-1,-9.288596E-2,3.6158374E-1,4.387355E-2,-1.4566886E-1,3.2267034E-1],"categories":[],"categories_nodes":[],"categories_segments":[],"categories_sizes":[],"default_left":[0,0,0,0,0,0,0,0,0,0,0,0,0,0,0,0,0,0,0,0,0,0,0,0,0,0,0,0,0,0,0,0,0,0,0,0,0,0,0,0,0,0,0,0,0,0,0,0,0,0,0,0,0,0,0,0,0,0,0,0,0,0,0,0,0,0,0,0,0,0,0,0,0,0,0,0,0,0,0,0,0,0,0,0,0,0,0,0,0,0,0,0,0,0,0,0,0,0,0,0,0,0,0,0,0,0,0,0,0,0,0],"id":5,"left_children":[1,3,5,7,9,11,13,15,17,19,21,23,25,27,29,31,33,35,37,39,41,43,45,47,49,51,53,55,57,59,61,63,65,67,69,71,73,75,77,79,81,-1,-1,83,85,-1,-1,-1,-1,87,89,-1,-1,91,93,95,97,99,101,103,105,107,109,-1,-1,-1,-1,-1,-1,-1,-1,-1,-1,-1,-1,-1,-1,-1,-1,-1,-1,-1,-1,-1,-1,-1,-1,-1,-1,-1,-1,-1,-1,-1,-1,-1,-1,-1,-1,-1,-1,-1,-1,-1,-1,-1,-1,-1,-1,-1,-1],"loss_changes":[6.060589E2,7.857349E1,1.02108E2,4.0522255E1,1.9255035E1,2.4533997E0,8.924013E1,2.6134499E1,1.2387062E1,5.771592E0,7.9280396E0,3.7478175E0,1.3320618E0,3.845977E1,5.597441E1,2.4236547E1,1.03743E1,3.729074E0,1.0944252E1,6.2905765E0,9.999094E-1,1.4264458E1,5.9176025E0,6.0035706E-1,9.870101E0,3.347948E0,1.3321838E0,4.0112003E1,3.272812E0,2.2784172E1,1.3616768E1,2.3325169E1,1.2159424E0,4.55418E0,5.375852E0,6.1226454E0,2.5625105E0,6.7386093E0,5.111987E0,7.724248E0,3.0797052E0,0E0,0E0,1.7069534E1,6.9794235E0,0E0,0E0,0E0,0E0,1.8226624E0,8.6808586E-1,0E0,0E0,1.3157043E0,9.464909E0,4.5545143E1,1.09580765E1,8.582467E0,2.9923096E0,1.602935E1,3.1043067E0,7.9356384E-1,8.426556E0,0E0,0E0,0E0,0E0,0E0,0E0,0E0,0E0,0E0,0E0,0E0,0E0,0E0,0E0,0E0,0E0,0E0,0E0,0E0,0E0,0E0,0E0,0E0,0E0,0E0,0E0,0E0,0E0,0E0,0E0,0E0,0E0,0E0,0E0,0E0,0E0,0E0,0E0,0E0,0E0,0E0,0E0,0E0,0E0,0E0,0E0,0E0,0E0],"parents":[2147483647,0,0,1,1,2,2,3,3,4,4,5,5,6,6,7,7,8,8,9,9,10,10,11,11,12,12,13,13,14,14,15,15,16,16,17,17,18,18,19,19,20,20,21,21,22,22,23,23,24,24,25,25,26,26,27,27,28,28,29,29,30,30,31,31,32,32,33,33,34,34,35,35,36,36,37,37,38,38,39,39,40,40,43,43,44,44,49,49,50,50,53,53,54,54,55,55,56,56,57,57,58,58,59,59,60,60,61,61,62,62],"right_children":[2,4,6,8,10,12,14,16,18,20,22,24,26,28,30,32,34,36,38,40,42,44,46,48,50,52,54,56,58,60,62,64,66,68,70,72,74,76,78,80,82,-1,-1,84,86,-1,-1,-1,-1,88,90,-1,-1,92,94,96,98,100,102,104,106,108,110,-1,-1,-1,-1,-1,-1,-1,-1,-1,-1,-1,-1,-1,-1,-1,-1,-1,-1,-1,-1,-1,-1,-1,-1,-1,-1,-1,-1,-1,-1,-1,-1,-1,-1,-1,-1,-1,-1,-1,-1,-1,-1,-1,-1,-1,-1,-1,-1],"split_conditions":[1E0,4.3E1,2E0,1E0,2E0,1E0,1E0,1.6666668E-2,1E0,1.177815E6,1E0,7.3333336E1,-1E0,1.6666668E-2,1E0,1.7E1,1.5217391E1,9.4871795E-1,1E0,1E0,3E0,5E0,5E0,4E0,1E0,1.875E-1,4E0,1.4E1,1.3E1,2.2E1,4E0,3E0,4.571429E0,2.6E1,3E0,3.090909E-1,2.5E1,3E0,1E0,1.98E2,9.5833336E1,-3.0443978E-1,-2.0074831E-2,2E0,7E0,-3.2702652E-1,2.1129203E-1,3.3497941E-1,5.4075908E-2,1.2E1,3.6E1,-2.3923312E-1,2.4844395E-1,9E0,9.433962E-3,4E0,5E0,1.754386E0,2E0,5E0,5.063291E1,1.283E3,1.6E1,1.083182E-1,-1.6676098E-1,6.5492935E-2,3.683675E-1,8.668147E-3,5.7571065E-1,-9.5451035E-2,3.6321464E-1,-2.2333509E-1,1.9738887E-1,3.111722E-1,-1.1083256E-1,-3.0728155E-1,-1.4435655E-1,1.5668106E-1,-2.2158004E-1,-4.717709E-2,3.65899E-1,-2.7909333E-1,3.9434014E-3,-2.9038936E-1,4.8200164E-2,1.7762646E-1,-3.1434798E-1,3.126645E-1,-3.3444762E-3,-4.6050593E-1,-6.61533E-2,3.152821E-1,1.5124391E-1,-1.9846016E-1,3.141765E-1,2.106738E-1,-1.0803239E-1,2.7478105E-1,-2.3604755E-1,2.9173383E-1,-3.690399E-1,3.4088397E-1,-1.4519279E-2,-2.4801397E-1,2.6478875E-1,3.348018E-1,-9.288596E-2,3.6158374E-1,4.387355E-2,-1.4566886E-1,3.2267034E-1],"split_indices":[82,54,83,19,83,76,19,24,83,80,19,65,79,24,48,44,72,55,7,19,4,83,4,58,64,55,5,42,2,42,83,83,46,1,4,56,2,41,35,78,67,0,0,37,2,0,0,0,0,43,1,0,0,41,23,13,12,72,12,4,68,78,44,0,0,0,0,0,0,0,0,0,0,0,0,0,0,0,0,0,0,0,0,0,0,0,0,0,0,0,0,0,0,0,0,0,0,0,0,0,0,0,0,0,0,0,0,0,0,0,0],"split_type":[0,0,0,0,0,0,0,0,0,0,0,0,0,0,0,0,0,0,0,0,0,0,0,0,0,0,0,0,0,0,0,0,0,0,0,0,0,0,0,0,0,0,0,0,0,0,0,0,0,0,0,0,0,0,0,0,0,0,0,0,0,0,0,0,0,0,0,0,0,0,0,0,0,0,0,0,0,0,0,0,0,0,0,0,0,0,0,0,0,0,0,0,0,0,0,0,0,0,0,0,0,0,0,0,0,0,0,0,0,0,0],"sum_hessian":[1.6308594E3,7.468556E2,8.8400385E2,2.900459E2,4.5680972E2,3.4210495E2,5.4189886E2,1.5069318E2,1.393527E2,3.6660294E1,4.201494E2,1.8807623E1,3.2329733E2,3.7553766E2,1.663612E2,1.3057132E2,2.0121864E1,1.670193E1,1.2265079E2,2.7991346E1,8.668949E0,1.4756271E2,2.725867E2,8.942549E0,9.865075E0,3.6651833E0,3.1963214E2,2.6798013E2,1.0755755E2,1.2726219E2,3.9099014E1,1.1610157E2,1.4469746E1,1.1881864E1,8.240001E0,1.0922998E1,5.77893E0,1.09893456E2,1.2757324E1,1.5179621E1,1.2811726E1,7.21075E0,1.4581985E0,5.26157E1,9.4947014E1,2.7137036E2,1.2163547E0,7.7313433E0,1.211205E0,7.090114E0,2.7749615E0,1.0075604E0,2.6576228E0,3.0362448E2,1.6007645E1,1.6711449E2,1.0086564E2,6.1903534E0,1.01367195E2,1.18719154E2,8.543037E0,2.4263195E1,1.4835821E1,4.3755234E1,7.234633E1,1.8433454E0,1.2626401E1,1.4697704E0,1.0412093E1,5.683361E0,2.5566404E0,6.610455E0,4.312544E0,4.657709E0,1.1212211E0,7.2412735E1,3.748072E1,8.9977E0,3.759625E0,9.054211E0,6.12541E0,6.225108E0,6.5866175E0,2.3354872E1,2.9260826E1,2.0648358E0,9.288218E1,4.832667E0,2.257447E0,1.6823395E0,1.0926219E0,2.963994E2,7.225071E0,3.5100842E0,1.24975605E1,6.553758E1,1.01576904E2,9.766517E1,3.2004693E0,4.560059E0,1.6302946E0,9.927049E1,2.0967064E0,1.1374766E2,4.9714956E0,7.121395E0,1.4216421E0,2.3228563E1,1.0346304E0,1.0973367E1,3.8624547E0],"tree_param":{"num_deleted":"0","num_feature":"84","num_nodes":"111","size_leaf_vector":"1"}},{"base_weights":[7.865894E-3,-5.721515E-1,4.927835E-1,-2.2746873E-1,-8.6482906E-1,9.2909634E-1,2.4803294E-1,8.1229694E-2,-5.8122087E-1,-4.67164E-1,-9.5880455E-1,4.9925727E-1,9.5497817E-1,5.254226E-1,-2.3720449E-1,1.150066E0,-4.058697E-2,-2.9120678E-1,-8.879986E-1,8.652495E-3,-8.2194847E-1,-9.9319696E-1,-2.7091447E-1,9.2303544E-1,9.6125476E-2,9.758538E-1,4.916339E-1,6.230672E-1,-6.4352864E-1,-4.1941905E-1,6.148283E-1,1.4547033E0,2.9812965E-1,-8.727286E-1,1.2770264E-1,-7.3415524E-1,4.1267523E-1,-9.492071E-1,2.4075674E-1,-5.384021E-1,7.459334E-1,-9.1788834E-1,-4.0266182E-2,2.4569859E-1,-1.0070416E0,-6.864841E-1,8.207204E-1,3.0770224E-1,3.364253E-2,6.4963186E-1,-9.6229494E-1,9.8598063E-1,2.3841688E-1,8.2735157E-1,-3.3346936E-1,7.2901565E-1,-1.717628E-1,-1.3079953E0,6.0143256E-1,-5.341169E-1,7.950071E-1,1.0682553E0,2.714382E-1,4.8446894E-1,2.4452949E-2,2.867134E-1,-2.4644081E-1,-2.8507182E-1,1.3251814E-1,1.8737149E-1,-5.4108504E-2,-2.8108427E-2,-2.7824232E-1,3.0008107E-1,-8.653107E-2,-2.989431E-1,2.0836264E-1,-2.4991316E-1,3.920192E-1,3.304621E-1,-6.861656E-2,-5.9617333E-2,-2.994588E-1,-2.3863985E-1,2.1374615E-1,-2.2476794E-1,2.9165635E-1,-3.1110364E-1,-1.6539839E-1,-2.6760757E-1,5.5862866E-2,4.52164E-1,-1.9164854E-1,2.5776136E-1,-9.126229E-2,-3.87202E-1,-2.6967976E-2,2.9993963E-1,1.2611711E-1,-2.4963307E-1,2.3508815E-1,2.951439E-1,-6.380481E-2,2.2840855E-1,-3.0000898E-1,-1.5014148E-1,3.2061997E-1,-5.019263E-1,-7.464545E-2,3.2315147E-1,-2.3742355E-1,-1.9756113E-1,2.4143456E-1,3.1648934E-1,-1.7447005E-1,4.132569E-1,3.6509916E-2,2.3129843E-1,-1.3681714E-1],"categories":[],"categories_nodes":[],"categories_segments":[],"categories_sizes":[],"default_left":[0,0,0,0,0,0,0,0,0,0,0,0,0,0,0,0,0,0,0,0,0,0,0,0,0,0,0,0,0,0,0,0,0,0,0,0,0,0,0,0,0,0,0,0,0,0,0,0,0,0,0,0,0,0,0,0,0,0,0,0,0,0,0,0,0,0,0,0,0,0,0,0,0,0,0,0,0,0,0,0,0,0,0,0,0,0,0,0,0,0,0,0,0,0,0,0,0,0,0,0,0,0,0,0,0,0,0,0,0,0,0,0,0,0,0,0,0,0,0],"id":6,"left_children":[1,3,5,7,9,11,13,15,17,19,21,23,25,27,29,31,33,35,37,39,41,43,45,47,49,51,53,55,57,59,61,63,65,67,69,71,73,75,-1,77,79,81,83,85,87,89,91,-1,-1,93,95,97,99,101,-1,103,105,107,109,111,113,115,117,-1,-1,-1,-1,-1,-1,-1,-1,-1,-1,-1,-1,-1,-1,-1,-1,-1,-1,-1,-1,-1,-1,-1,-1,-1,-1,-1,-1,-1,-1,-1,-1,-1,-1,-1,-1,-1,-1,-1,-1,-1,-1,-1,-1,-1,-1,-1,-1,-1,-1,-1,-1,-1,-1,-1,-1],"loss_changes":[3.8921454E2,6.337123E1,8.02545E1,3.1793941E1,1.2273651E1,2.5323944E0,6.529848E1,2.0373833E1,1.1805157E1,1.1320816E1,6.222641E0,2.893652E0,1.977356E0,3.5601845E1,2.7707832E1,3.7205944E0,1.9873053E1,2.249857E1,7.5294456E0,1.2346878E1,2.8430614E0,4.7233276E0,7.1144814E0,5.8364344E-1,6.520375E0,1.5726166E0,7.898755E0,2.4136238E1,2.0861061E1,2.0796438E1,4.6233397E0,2.405342E0,4.8151364E0,2.8512497E0,1.821257E1,5.3674603E0,1.18797245E1,5.632042E0,0E0,1.0647218E1,4.769497E0,1.7744637E0,3.5478797E0,3.3939412E0,2.955658E0,2.1398826E0,5.408706E0,0E0,0E0,1.7015314E0,9.893265E-1,1.4433899E0,3.3357449E0,2.0472302E0,0E0,1.4843124E1,1.4539817E1,5.8239E0,6.9021044E0,2.2890755E1,5.273759E0,3.7135963E0,7.3647695E0,0E0,0E0,0E0,0E0,0E0,0E0,0E0,0E0,0E0,0E0,0E0,0E0,0E0,0E0,0E0,0E0,0E0,0E0,0E0,0E0,0E0,0E0,0E0,0E0,0E0,0E0,0E0,0E0,0E0,0E0,0E0,0E0,0E0,0E0,0E0,0E0,0E0,0E0,0E0,0E0,0E0,0E0,0E0,0E0,0E0,0E0,0E0,0E0,0E0,0E0,0E0,0E0,0E0,0E0,0E0,0E0],"parents":[2147483647,0,0,1,1,2,2,3,3,4,4,5,5,6,6,7,7,8,8,9,9,10,10,11,11,12,12,13,13,14,14,15,15,16,16,17,17,18,18,19,19,20,20,21,21,22,22,23,23,24,24,25,25,26,26,27,27,28,28,29,29,30,30,31,31,32,32,33,33,34,34,35,35,36,36,37,37,39,39,40,40,41,41,42,42,43,43,44,44,45,45,46,46,49,49,50,50,51,51,52,52,53,53,55,55,56,56,57,57,58,58,59,59,60,60,61,61,62,62],"right_children":[2,4,6,8,10,12,14,16,18,20,22,24,26,28,30,32,34,36,38,40,42,44,46,48,50,52,54,56,58,60,62,64,66,68,70,72,74,76,-1,78,80,82,84,86,88,90,92,-1,-1,94,96,98,100,102,-1,104,106,108,110,112,114,116,118,-1,-1,-1,-1,-1,-1,-1,-1,-1,-1,-1,-1,-1,-1,-1,-1,-1,-1,-1,-1,-1,-1,-1,-1,-1,-1,-1,-1,-1,-1,-1,-1,-1,-1,-1,-1,-1,-1,-1,-1,-1,-1,-1,-1,-1,-1,-1,-1,-1,-1,-1,-1,-1,-1,-1,-1],"split_conditions":[1E0,5.2E1,2E0,1E0,3E0,1E0,3.2E1,3E0,4E0,1E0,1E0,7.3333336E1,1.1E2,1E0,1E0,9E0,3E0,1E0,4E0,2E0,4.1E1,7E0,5E0,1.1666667E1,1E0,2E0,9.709091E-1,3E0,1.8E1,6.779661E-2,6.714286E0,3.409091E-2,6.679E3,3.6E1,4.8E1,1E0,5.3E1,1E0,2.4075674E-1,1E0,1E1,8.37E2,8.1818184E1,1E0,1E2,1.2E1,3.3333334E-1,3.0770224E-1,3.364253E-2,2.2727273E-1,5E0,9E0,1E0,1E0,-3.3346936E-1,9.184E3,3.6E1,1E0,1E0,2.40429E6,3.57413E5,1.12E2,4E0,4.8446894E-1,2.4452949E-2,2.867134E-1,-2.4644081E-1,-2.8507182E-1,1.3251814E-1,1.8737149E-1,-5.4108504E-2,-2.8108427E-2,-2.7824232E-1,3.0008107E-1,-8.653107E-2,-2.989431E-1,2.0836264E-1,-2.4991316E-1,3.920192E-1,3.304621E-1,-6.861656E-2,-5.9617333E-2,-2.994588E-1,-2.3863985E-1,2.1374615E-1,-2.2476794E-1,2.9165635E-1,-3.1110364E-1,-1.6539839E-1,-2.6760757E-1,5.5862866E-2,4.52164E-1,-1.9164854E-1,2.5776136E-1,-9.126229E-2,-3.87202E-1,-2.6967976E-2,2.9993963E-1,1.2611711E-1,-2.4963307E-1,2.3508815E-1,2.951439E-1,-6.380481E-2,2.2840855E-1,-3.0000898E-1,-1.5014148E-1,3.2061997E-1,-5.019263E-1,-7.464545E-2,3.2315147E-1,-2.3742355E-1,-1.9756113E-1,2.4143456E-1,3.1648934E-1,-1.7447005E-1,4.132569E-1,3.6509916E-2,2.3129843E-1,-1.3681714E-1],"split_indices":[82,54,83,19,83,76,54,40,83,19,7,65,54,12,48,44,13,41,12,37,1,2,13,46,64,12,55,5,44,24,46,62,80,1,80,83,1,52,0,63,40,0,65,76,72,43,60,0,0,23,79,41,54,83,0,79,2,7,49,80,80,54,83,0,0,0,0,0,0,0,0,0,0,0,0,0,0,0,0,0,0,0,0,0,0,0,0,0,0,0,0,0,0,0,0,0,0,0,0,0,0,0,0,0,0,0,0,0,0,0,0,0,0,0,0,0,0,0,0],"split_type":[0,0,0,0,0,0,0,0,0,0,0,0,0,0,0,0,0,0,0,0,0,0,0,0,0,0,0,0,0,0,0,0,0,0,0,0,0,0,0,0,0,0,0,0,0,0,0,0,0,0,0,0,0,0,0,0,0,0,0,0,0,0,0,0,0,0,0,0,0,0,0,0,0,0,0,0,0,0,0,0,0,0,0,0,0,0,0,0,0,0,0,0,0,0,0,0,0,0,0,0,0,0,0,0,0,0,0,0,0,0,0,0,0,0,0,0,0,0,0],"sum_hessian":[1.3818192E3,6.291287E2,7.526904E2,2.897137E2,3.3941504E2,2.6948602E2,4.832044E2,1.5512006E2,1.3459364E2,6.601944E1,2.733956E2,1.6457306E1,2.530287E2,3.073962E2,1.7580818E2,1.5006856E1,1.4011319E2,7.018916E1,6.440449E1,2.8616392E1,3.740305E1,2.599548E2,1.3440793E1,7.394469E0,9.062838E0,2.4106175E2,1.1966953E1,2.8412936E2,2.326685E1,1.4525244E2,3.0555744E1,1.0532939E1,4.473917E0,2.2865295E1,1.172479E2,4.305311E1,2.7136055E1,6.257727E1,1.8272184E0,1.658227E1,1.20341215E1,3.3159023E1,4.244026E0,2.687803E0,2.57267E2,1.0003678E1,3.4371147E0,6.3285627E0,1.0659057E0,6.204426E0,2.8584116E0,2.3746375E2,3.5980022E0,1.0295054E1,1.6718984E0,2.507835E2,3.3345886E1,1.5137147E1,8.129702E0,1.3322961E2,1.2022832E1,1.2258364E1,1.8297379E1,9.274934E0,1.2580048E0,2.9107232E0,1.5631938E0,2.1853712E1,1.0115832E0,4.4479942E1,7.276796E1,1.0326475E1,3.272663E1,1.4531043E1,1.2605012E1,6.1210785E1,1.3664836E0,1.477192E1,1.8103495E0,8.7217655E0,3.312356E0,3.6798747E0,2.9479149E1,2.090245E0,2.153781E0,1.1211262E0,1.5666769E0,2.4019475E2,1.707226E1,8.0787735E0,1.9249047E0,2.3154128E0,1.121702E0,5.1681266E0,1.0362992E0,1.728386E0,1.1300254E0,2.3105115E2,6.412595E0,1.0365347E0,2.5614674E0,8.995796E0,1.2992582E0,2.467275E2,4.0559916E0,2.6832357E1,6.5135293E0,1.0825908E1,4.3112397E0,6.228827E0,1.9008751E0,1.2236658E2,1.0863039E1,1.0309566E1,1.7132665E0,8.89636E0,3.3620036E0,1.0812712E1,7.4846673E0],"tree_param":{"num_deleted":"0","num_feature":"84","num_nodes":"119","size_leaf_vector":"1"}},{"base_weights":[6.263351E-3,-4.955778E-1,4.2212468E-1,8.382609E-2,-6.605797E-1,8.671507E-1,2.0290203E-1,5.093666E-1,-1.9276403E-1,-2.0696166E-1,-8.1919295E-1,8.9747566E-1,3.1171674E-1,-4.554706E-3,7.824453E-1,1.1613629E0,1.2317E-1,-3.1000108E-1,4.576206E-1,1.6522965E-1,-5.875399E-1,-8.4824705E-1,8.2240695E-1,7.8185654E-1,1.0364943E0,-1.122266E0,2.886857E-1,-1.8438533E-1,7.0352656E-1,8.5884136E-1,-5.4877114E-1,2.6900533E-1,5.4370606E-1,-3.0268586E-1,7.502493E-1,8.2295015E-2,-8.650846E-1,-4.4507027E-1,6.4204156E-1,9.192461E-2,-8.1923795E-1,-8.987743E-1,-8.41898E-2,6.9708586E-1,-3.8216764E-1,8.1678236E-1,-1.3710725E-1,1.0473977E0,2.7177537E-2,-6.630438E-1,1.9437449E-1,-3.190122E-1,9.548689E-1,9.465086E-1,3.5048753E-1,9.4145375E-1,-1.11939125E-1,-9.000432E-1,2.1784252E-1,-2.1850199E-1,3.0412412E-1,1.3588598E-1,-2.405533E-1,2.9084897E-1,-1.2865171E-1,-5.4604527E-2,2.7375507E-1,-3.151914E-1,-5.739383E-2,-2.579789E-1,1.5422183E-1,2.6585793E-1,-2.0822084E-1,-2.1639462E-1,1.03755385E-1,-2.7138668E-1,8.6068936E-2,-1.3550673E-1,-2.8832093E-1,-2.6219493E-1,9.3095265E-2,-2.18684E-1,1.0054335E-1,2.5780097E-1,3.1810377E-2,2.3224127E-1,-4.4263288E-1,5.241504E-2,3.172826E-1,-1.3311334E-1,2.6749545E-1,4.3171704E-2,3.5765553E-1,3.0311877E-1,-1.09392405E-1,2.4239567E-1,-7.487665E-2,2.9217768E-1,-1.20153055E-1,-4.741452E-1,2.962011E-1,-3.280616E-1,-4.3137774E-2],"categories":[],"categories_nodes":[],"categories_segments":[],"categories_sizes":[],"default_left":[0,0,0,0,0,0,0,0,0,0,0,0,0,0,0,0,0,0,0,0,0,0,0,0,0,0,0,0,0,0,0,0,0,0,0,0,0,0,0,0,0,0,0,0,0,0,0,0,0,0,0,0,0,0,0,0,0,0,0,0,0,0,0,0,0,0,0,0,0,0,0,0,0,0,0,0,0,0,0,0,0,0,0,0,0,0,0,0,0,0,0,0,0,0,0,0,0,0,0,0,0,0,0],"id":7,"left_children":[1,3,5,7,9,11,13,15,17,19,21,23,25,27,29,31,33,35,-1,37,39,41,43,45,47,49,-1,51,53,55,57,59,-1,61,63,65,67,69,71,73,75,77,79,-1,81,83,85,87,-1,-1,-1,89,91,93,95,97,99,101,-1,-1,-1,-1,-1,-1,-1,-1,-1,-1,-1,-1,-1,-1,-1,-1,-1,-1,-1,-1,-1,-1,-1,-1,-1,-1,-1,-1,-1,-1,-1,-1,-1,-1,-1,-1,-1,-1,-1,-1,-1,-1,-1,-1,-1],"loss_changes":[2.4735289E2,5.140338E1,6.305533E1,1.4214955E1,2.9916977E1,3.3179474E0,5.2367577E1,1.1822881E1,1.52613535E1,1.5631948E1,1.5458649E1,2.4365234E0,1.2825341E1,4.1095528E1,1.2147827E1,9.712746E0,8.495572E0,1.5217953E1,0E0,1.6647902E1,8.64657E0,1.1683533E1,1.1538988E1,3.7822876E0,8.1941223E-1,9.887721E0,0E0,3.9775753E1,5.2754784E0,8.844803E0,3.7174573E0,7.111819E0,0E0,7.5872293E0,3.7273636E0,9.3096E0,3.4108276E0,1.0490189E1,1.1045875E1,3.294106E0,4.1035957E0,7.5202484E0,6.501865E0,0E0,1.2707913E0,3.2452927E0,7.2927465E0,5.953369E-1,0E0,0E0,0E0,3.525482E1,5.1109295E0,3.5624123E0,7.9533844E0,4.7708664E0,1.679964E1,6.9296837E-1,0E0,0E0,0E0,0E0,0E0,0E0,0E0,0E0,0E0,0E0,0E0,0E0,0E0,0E0,0E0,0E0,0E0,0E0,0E0,0E0,0E0,0E0,0E0,0E0,0E0,0E0,0E0,0E0,0E0,0E0,0E0,0E0,0E0,0E0,0E0,0E0,0E0,0E0,0E0,0E0,0E0,0E0,0E0,0E0,0E0],"parents":[2147483647,0,0,1,1,2,2,3,3,4,4,5,5,6,6,7,7,8,8,9,9,10,10,11,11,12,12,13,13,14,14,15,15,16,16,17,17,19,19,20,20,21,21,22,22,23,23,24,24,25,25,27,27,28,28,29,29,30,30,31,31,33,33,34,34,35,35,36,36,37,37,38,38,39,39,40,40,41,41,42,42,44,44,45,45,46,46,47,47,51,51,52,52,53,53,54,54,55,55,56,56,57,57],"right_children":[2,4,6,8,10,12,14,16,18,20,22,24,26,28,30,32,34,36,-1,38,40,42,44,46,48,50,-1,52,54,56,58,60,-1,62,64,66,68,70,72,74,76,78,80,-1,82,84,86,88,-1,-1,-1,90,92,94,96,98,100,102,-1,-1,-1,-1,-1,-1,-1,-1,-1,-1,-1,-1,-1,-1,-1,-1,-1,-1,-1,-1,-1,-1,-1,-1,-1,-1,-1,-1,-1,-1,-1,-1,-1,-1,-1,-1,-1,-1,-1,-1,-1,-1,-1,-1,-1],"split_conditions":[1E0,1.6E1,2E0,1E0,3E0,4E0,6.630435E-1,1.393E3,2.9E1,1E0,3.5E1,6.4E1,9.2E1,1E0,5E0,9E1,1E0,4E0,4.576206E-1,2E0,1E0,1E0,6.1E1,1E0,4E0,2.3E1,2.886857E-1,1E-1,4E0,8.348E3,3.2E1,1E0,5.4370606E-1,2E0,1E0,9.2395437E-1,8.6153847E-1,2.46E2,4E0,1.06E2,5E0,2E0,4.5E1,6.9708586E-1,7.1E1,1.08E2,5.8E1,3.4285715E0,2.7177537E-2,-6.630438E-1,1.9437449E-1,2.2E1,1.9E1,3E0,1E0,2.05E2,1E0,1.1363636E0,2.1784252E-1,-2.1850199E-1,3.0412412E-1,1.3588598E-1,-2.405533E-1,2.9084897E-1,-1.2865171E-1,-5.4604527E-2,2.7375507E-1,-3.151914E-1,-5.739383E-2,-2.579789E-1,1.5422183E-1,2.6585793E-1,-2.0822084E-1,-2.1639462E-1,1.03755385E-1,-2.7138668E-1,8.6068936E-2,-1.3550673E-1,-2.8832093E-1,-2.6219493E-1,9.3095265E-2,-2.18684E-1,1.0054335E-1,2.5780097E-1,3.1810377E-2,2.3224127E-1,-4.4263288E-1,5.241504E-2,3.172826E-1,-1.3311334E-1,2.6749545E-1,4.3171704E-2,3.5765553E-1,3.0311877E-1,-1.09392405E-1,2.4239567E-1,-7.487665E-2,2.9217768E-1,-1.20153055E-1,-4.741452E-1,2.962011E-1,-3.280616E-1,-4.3137774E-2],"split_indices":[82,54,83,22,83,5,56,79,2,19,2,1,1,48,5,79,7,83,0,37,83,7,54,9,12,2,0,24,83,79,2,41,0,80,75,55,55,78,5,78,38,80,1,0,1,54,1,47,0,0,0,42,2,58,19,54,48,67,0,0,0,0,0,0,0,0,0,0,0,0,0,0,0,0,0,0,0,0,0,0,0,0,0,0,0,0,0,0,0,0,0,0,0,0,0,0,0,0,0,0,0,0,0],"split_type":[0,0,0,0,0,0,0,0,0,0,0,0,0,0,0,0,0,0,0,0,0,0,0,0,0,0,0,0,0,0,0,0,0,0,0,0,0,0,0,0,0,0,0,0,0,0,0,0,0,0,0,0,0,0,0,0,0,0,0,0,0,0,0,0,0,0,0,0,0,0,0,0,0,0,0,0,0,0,0,0,0,0,0,0,0,0,0,0,0,0,0,0,0,0,0,0,0,0,0,0,0,0,0],"sum_hessian":[1.1832263E3,5.3609784E2,6.471284E2,1.1893825E2,4.171596E2,2.1259702E2,4.345314E2,4.6521782E1,7.2416466E1,1.08672386E2,3.0848724E2,2.0100688E2,1.159014E1,3.207176E2,1.1381381E2,1.6558952E1,2.996283E1,6.855806E1,3.8584049E0,5.5227654E1,5.3444733E1,3.0359726E2,4.8899765E0,1.1335546E2,8.765141E1,3.3908913E0,8.199249E0,2.563518E2,6.436578E1,1.0797233E2,5.8414836E0,7.5807366E0,8.978215E0,1.8152555E1,1.1810274E1,4.0668217E1,2.7889847E1,2.4252285E1,3.097537E1,1.37437725E1,3.9700962E1,2.8460025E2,1.899701E1,1.7633674E0,3.1266088E0,1.0931217E2,4.043289E0,8.654649E1,1.1049201E0,1.9462589E0,1.4446325E0,2.2990381E2,2.6447992E1,3.712984E1,2.7235945E1,9.953243E1,8.439899E0,4.8101864E0,1.0312973E0,3.2501776E0,4.330559E0,7.25791E0,1.0894647E1,1.010841E1,1.7018639E0,3.1439783E1,9.228431E0,2.1429052E1,6.460794E0,1.7001879E1,7.2504044E0,2.647437E1,4.5010014E0,2.8322866E0,1.0911486E1,3.702511E1,2.6758516E0,3.581458E1,2.4878566E2,5.923314E0,1.3073696E1,2.0967379E0,1.0298711E0,1.02939865E2,6.3723073E0,2.6562624E0,1.3870268E0,1.2103897E0,8.5336105E1,2.0900926E2,2.089455E1,6.3511276E0,2.0096865E1,3.562343E1,1.5064123E0,1.5257307E1,1.1978638E1,9.74487E1,2.083734E0,3.425695E0,5.014204E0,3.4750533E0,1.3351331E0],"tree_param":{"num_deleted":"0","num_feature":"84","num_nodes":"103","size_leaf_vector":"1"}},{"base_weights":[8.451164E-3,-4.260864E-1,3.595354E-1,-5.6665493E-3,-6.4127326E-1,6.595593E-1,6.8695776E-2,3.0077964E-1,-4.0260094E-1,-2.6526764E-1,-8.33625E-1,5.5984724E-2,7.34158E-1,4.7947377E-1,-2.5556165E-1,4.6191376E-2,7.901875E-1,-3.8936365E-2,-7.718506E-1,-4.679712E-1,5.098392E-1,-2.8323856E-1,-9.6004504E-1,-4.621386E-1,9.670634E-1,6.2327814E-1,9.916775E-1,6.5483E-1,-3.8035712E-1,3.05583E-1,-6.3389874E-1,-2.0599338E-1,1.1806048E0,1.1679074E0,-3.0740988E-1,-5.994999E-1,5.60365E-1,-8.637923E-1,3.2808277E-1,-7.9914296E-1,-9.915419E-2,1.2580557E0,-1.7670836E-1,-6.951132E-1,2.9327294E-1,-9.835783E-1,2.0356315E-1,-4.849585E-2,-1.223305E0,3.0680874E-1,5.5771176E-2,6.758764E-1,-2.4617778E-1,-1.04860455E-1,1.0167391E0,7.45723E-1,-7.21742E-1,5.480256E-1,-9.109232E-1,6.781907E-1,-4.3849292E-1,-8.073873E-1,3.4756812E-1,1.0746966E-1,-1.4114857E-1,7.363568E-2,3.8411224E-1,-6.6277534E-2,3.9829558E-1,1.6998033E-1,-2.61825E-1,-2.4339601E-2,-2.9089198E-1,3.180733E-1,-1.0995531E-2,-2.8487873E-1,2.0334473E-1,-2.7205703E-1,9.269767E-2,2.3846425E-1,-1.1746102E-1,1.9184282E-2,6.4310986E-1,1.891314E-1,-2.3426498E-1,-2.7599722E-1,1.1288466E-1,-6.637105E-2,3.2011104E-1,-2.9968828E-1,-7.4839056E-2,-2.1037062E-1,3.6753592E-1,2.0228575E-1,-1.7726904E-1,-6.6683275E-1,9.185192E-2,2.2065955E-1,2.540454E-2,-3.2047746E-1,2.2562791E-1,3.129745E-1,1.11191034E-1,2.4194063E-1,-2.7665958E-1,-3.4292394E-1,1.9299297E-1,2.5682238E-1,-2.345285E-1,-3.527084E-1,1.4043099E-1,2.3262927E-1,-3.957033E-1,-2.2030523E-1,3.2418337E-1,2.3186918E-1,-2.7103862E-1,2.9508373E-1,-2.4554746E-1],"categories":[],"categories_nodes":[],"categories_segments":[],"categories_sizes":[],"default_left":[0,0,0,0,0,0,0,0,0,0,0,0,0,0,0,0,0,0,0,0,0,0,0,0,0,0,0,0,0,0,0,0,0,0,0,0,0,0,0,0,0,0,0,0,0,0,0,0,0,0,0,0,0,0,0,0,0,0,0,0,0,0,0,0,0,0,0,0,0,0,0,0,0,0,0,0,0,0,0,0,0,0,0,0,0,0,0,0,0,0,0,0,0,0,0,0,0,0,0,0,0,0,0,0,0,0,0,0,0,0,0,0,0,0,0,0,0,0,0],"id":8,"left_children":[1,3,5,7,9,11,13,15,17,19,21,23,25,27,29,31,33,35,37,39,41,43,45,47,49,51,53,55,57,59,61,63,65,67,69,71,73,75,-1,77,79,81,83,85,87,89,91,93,95,-1,-1,97,99,-1,101,103,105,107,109,111,113,115,117,-1,-1,-1,-1,-1,-1,-1,-1,-1,-1,-1,-1,-1,-1,-1,-1,-1,-1,-1,-1,-1,-1,-1,-1,-1,-1,-1,-1,-1,-1,-1,-1,-1,-1,-1,-1,-1,-1,-1,-1,-1,-1,-1,-1,-1,-1,-1,-1,-1,-1,-1,-1,-1,-1,-1,-1],"loss_changes":[1.5695724E2,4.159201E1,4.9608887E1,1.9178116E1,2.1773743E1,1.2565414E1,3.8758068E1,1.1050711E1,9.193098E0,1.663973E1,1.369429E1,1.5496188E1,6.4947357E0,1.9594759E1,3.4746777E1,1.7292744E1,1.2957188E1,1.23147955E1,6.7808075E0,1.0091446E1,1.1584337E1,9.443333E0,4.6585693E0,6.5524473E0,3.261938E-1,8.252716E0,2.8186188E0,1.3918594E1,1.1516584E1,1.8656023E1,1.6888592E1,7.572154E0,7.10866E-1,5.355196E0,4.7298512E0,3.5490108E0,5.336087E0,5.007118E0,0E0,5.5001526E0,1.0907681E1,1.1186279E1,6.5448594E0,5.885954E0,6.9713254E0,1.5548248E0,4.608082E0,6.1406507E0,1.1920203E1,0E0,0E0,5.8274994E0,9.682692E0,0E0,8.498535E-1,1.0957485E1,4.8372445E0,4.2570734E0,5.8843746E0,9.667984E0,1.0996832E1,1.33281555E1,1.21899E1,0E0,0E0,0E0,0E0,0E0,0E0,0E0,0E0,0E0,0E0,0E0,0E0,0E0,0E0,0E0,0E0,0E0,0E0,0E0,0E0,0E0,0E0,0E0,0E0,0E0,0E0,0E0,0E0,0E0,0E0,0E0,0E0,0E0,0E0,0E0,0E0,0E0,0E0,0E0,0E0,0E0,0E0,0E0,0E0,0E0,0E0,0E0,0E0,0E0,0E0,0E0,0E0,0E0,0E0,0E0,0E0],"parents":[2147483647,0,0,1,1,2,2,3,3,4,4,5,5,6,6,7,7,8,8,9,9,10,10,11,11,12,12,13,13,14,14,15,15,16,16,17,17,18,18,19,19,20,20,21,21,22,22,23,23,24,24,25,25,26,26,27,27,28,28,29,29,30,30,31,31,32,32,33,33,34,34,35,35,36,36,37,37,39,39,40,40,41,41,42,42,43,43,44,44,45,45,46,46,47,47,48,48,51,51,52,52,54,54,55,55,56,56,57,57,58,58,59,59,60,60,61,61,62,62],"right_children":[2,4,6,8,10,12,14,16,18,20,22,24,26,28,30,32,34,36,38,40,42,44,46,48,50,52,54,56,58,60,62,64,66,68,70,72,74,76,-1,78,80,82,84,86,88,90,92,94,96,-1,-1,98,100,-1,102,104,106,108,110,112,114,116,118,-1,-1,-1,-1,-1,-1,-1,-1,-1,-1,-1,-1,-1,-1,-1,-1,-1,-1,-1,-1,-1,-1,-1,-1,-1,-1,-1,-1,-1,-1,-1,-1,-1,-1,-1,-1,-1,-1,-1,-1,-1,-1,-1,-1,-1,-1,-1,-1,-1,-1,-1,-1,-1,-1,-1,-1],"split_conditions":[1E0,2.7777777E0,2E0,1E0,2.695E3,1E0,4E0,1.1E1,4E0,3E0,2E0,1E0,6E0,3.2E-1,6E0,7.2E-1,5.882353E-2,1E0,1E0,6E1,1E0,3E0,4E0,4.377E3,1E1,4E0,9E0,1E0,7.0731705E-1,2.173913E1,1E0,3E0,3.5E1,2E0,1.393E3,2E0,5.3E1,4E0,3.2808277E-1,1.6666668E-2,1.109E3,4.57413E5,8.77193E-3,1E0,8.8888885E1,1.1053E4,8.5E1,6.125E0,6.2E1,3.0680874E-1,5.5771176E-2,9.090909E1,7.575758E-2,-1.04860455E-1,8.045E3,5E0,1E0,1E0,4E0,1E1,1E0,6E0,1E0,1.0746966E-1,-1.4114857E-1,7.363568E-2,3.8411224E-1,-6.6277534E-2,3.9829558E-1,1.6998033E-1,-2.61825E-1,-2.4339601E-2,-2.9089198E-1,3.180733E-1,-1.0995531E-2,-2.8487873E-1,2.0334473E-1,-2.7205703E-1,9.269767E-2,2.3846425E-1,-1.1746102E-1,1.9184282E-2,6.4310986E-1,1.891314E-1,-2.3426498E-1,-2.7599722E-1,1.1288466E-1,-6.637105E-2,3.2011104E-1,-2.9968828E-1,-7.4839056E-2,-2.1037062E-1,3.6753592E-1,2.0228575E-1,-1.7726904E-1,-6.6683275E-1,9.185192E-2,2.2065955E-1,2.540454E-2,-3.2047746E-1,2.2562791E-1,3.129745E-1,1.11191034E-1,2.4194063E-1,-2.7665958E-1,-3.4292394E-1,1.9299297E-1,2.5682238E-1,-2.345285E-1,-3.527084E-1,1.4043099E-1,2.3262927E-1,-3.957033E-1,-2.2030523E-1,3.2418337E-1,2.3186918E-1,-2.7103862E-1,2.9508373E-1,-2.4554746E-1],"split_indices":[82,72,80,19,79,76,83,43,83,41,80,48,13,60,37,56,60,41,52,79,22,37,4,79,40,5,2,12,55,72,7,83,78,37,79,83,1,12,0,24,79,80,60,63,72,0,1,46,1,0,0,68,23,0,79,5,7,10,38,83,55,44,49,0,0,0,0,0,0,0,0,0,0,0,0,0,0,0,0,0,0,0,0,0,0,0,0,0,0,0,0,0,0,0,0,0,0,0,0,0,0,0,0,0,0,0,0,0,0,0,0,0,0,0,0,0,0,0,0],"split_type":[0,0,0,0,0,0,0,0,0,0,0,0,0,0,0,0,0,0,0,0,0,0,0,0,0,0,0,0,0,0,0,0,0,0,0,0,0,0,0,0,0,0,0,0,0,0,0,0,0,0,0,0,0,0,0,0,0,0,0,0,0,0,0,0,0,0,0,0,0,0,0,0,0,0,0,0,0,0,0,0,0,0,0,0,0,0,0,0,0,0,0,0,0,0,0,0,0,0,0,0,0,0,0,0,0,0,0,0,0,0,0,0,0,0,0,0,0,0,0],"sum_hessian":[1.0268237E3,4.587788E2,5.68045E2,1.5566862E2,3.031102E2,2.7898364E2,2.8906134E2,8.7984215E1,6.768442E1,1.0338812E2,1.9972206E2,3.0880594E1,2.4810304E2,1.27306885E2,1.6175444E2,5.859676E1,2.9387451E1,3.4657036E1,3.302738E1,8.22695E1,2.1118618E1,3.7911167E1,1.618109E2,1.9999687E1,1.0880908E1,1.7582053E2,7.228251E1,1.0593968E2,2.1367203E1,6.521729E1,9.653715E1,4.8609158E1,9.9876E0,2.1815836E1,7.571615E0,1.7907095E1,1.674994E1,3.1987776E1,1.0396057E0,4.273221E1,3.9537296E1,9.70712E0,1.1411498E1,2.1993046E1,1.591812E1,1.5875488E2,3.0560133E0,1.3647112E1,6.3525743E0,9.868868E0,1.0120405E0,1.6600085E2,9.8196745E0,1.0883899E0,7.119412E1,9.980779E1,6.1318874E0,7.758499E0,1.3608704E1,4.3515015E1,2.1702278E1,8.2186806E1,1.4350346E1,1.5401303E1,3.3207855E1,1.2964039E0,8.691196E0,2.2109194E0,1.9604918E1,2.9730597E0,4.5985556E0,7.9677444E0,9.93935E0,8.694323E0,8.055618E0,3.0665031E1,1.3227443E0,3.911205E1,3.6201606E0,9.320088E0,3.0217207E1,4.590279E0,5.116841E0,4.866559E0,6.5449395E0,1.829449E1,3.6985555E0,9.989643E0,5.9284782E0,1.5514326E2,3.6116192E0,1.786904E0,1.2691092E0,5.7464604E0,7.900652E0,3.5678167E0,2.7847576E0,1.5056381E2,1.5437034E1,5.3466096E0,4.473065E0,6.779774E1,3.3963814E0,9.679886E1,3.0089335E0,4.8098783E0,1.3220092E0,6.5884895E0,1.1700101E0,1.1540405E1,2.0682976E0,4.2078053E1,1.4369644E0,1.859696E1,3.1053185E0,4.306507E0,7.7880295E1,9.386699E0,4.963647E0],"tree_param":{"num_deleted":"0","num_feature":"84","num_nodes":"119","size_leaf_vector":"1"}},{"base_weights":[6.176018E-3,-3.622278E-1,3.0348912E-1,-7.8977555E-2,-6.5796626E-1,8.1421405E-1,1.4910473E-1,6.61524E-2,-6.6805595E-1,-3.4700027E-1,-8.757051E-1,8.541775E-1,1.3966793E-1,3.519692E-1,-2.5606593E-1,-1.3366327E-1,7.047665E-1,-8.327449E-1,2.8717184E-1,-7.592772E-1,-1.0941663E-1,-4.3530297E-2,-9.2023516E-1,6.4737314E-1,3.0829155E-1,-4.851339E-1,7.253264E-1,2.1448664E-1,8.425245E-1,-4.1522694E-1,6.4834607E-1,2.133696E-1,-4.182302E-1,1.1380857E0,-9.251479E-2,-9.364727E-1,4.1375405E-1,1.0267719E-1,-8.455114E-1,1.2214356E-1,-7.185289E-1,-2.687744E-1,7.643536E-1,-9.407678E-1,3.3387437E-2,7.162792E-1,-3.5334826E-1,2.5480428E-1,1.4355399E-2,6.593445E-2,7.9734814E-1,1.7319713E-2,9.097884E-1,-1.17295116E-1,-9.401553E-1,1.1791818E0,-2.5134584E-1,-1.6521887E-1,1.4824438E-1,6.0408637E-2,-1.8570039E-1,1.721123E-1,4.8538557E-1,2.2121261E-1,-1.573095E-1,-2.9452592E-1,2.571033E-2,-1.937469E-1,3.381906E-1,-2.7008313E-1,3.6456015E-2,1.430932E-1,-7.082978E-2,-2.908983E-1,7.383784E-2,3.6966345E-1,-1.7012361E-2,-2.8712973E-1,-5.2613374E-2,-1.7574759E-1,2.0548826E-1,2.4095683E-1,-1.5280552E-1,3.2360595E-1,-1.7577045E-2,3.118052E-1,1.4644659E-1,2.4283537E-1,-3.3509257E-1,2.8467238E-1,-4.7748256E-2,7.481708E-2,-1.6928661E-1,1.7619766E-2,-3.228793E-1,4.000366E-1,-8.287865E-2,-2.1495005E-1,2.3750691E-1],"categories":[],"categories_nodes":[],"categories_segments":[],"categories_sizes":[],"default_left":[0,0,0,0,0,0,0,0,0,0,0,0,0,0,0,0,0,0,0,0,0,0,0,0,0,0,0,0,0,0,0,0,0,0,0,0,0,0,0,0,0,0,0,0,0,0,0,0,0,0,0,0,0,0,0,0,0,0,0,0,0,0,0,0,0,0,0,0,0,0,0,0,0,0,0,0,0,0,0,0,0,0,0,0,0,0,0,0,0,0,0,0,0,0,0,0,0,0,0],"id":9,"left_children":[1,3,5,7,9,11,13,15,17,19,21,23,25,27,29,31,33,35,-1,37,39,41,43,45,-1,-1,47,49,51,53,55,57,59,61,63,65,67,-1,69,71,73,-1,75,77,79,81,-1,-1,-1,83,85,87,89,91,93,95,97,-1,-1,-1,-1,-1,-1,-1,-1,-1,-1,-1,-1,-1,-1,-1,-1,-1,-1,-1,-1,-1,-1,-1,-1,-1,-1,-1,-1,-1,-1,-1,-1,-1,-1,-1,-1,-1,-1,-1,-1,-1,-1],"loss_changes":[9.7760155E1,3.3339424E1,3.8822445E1,1.7548367E1,1.28909E1,2.965187E0,3.1364307E1,2.1172335E1,1.1654179E1,7.940221E0,4.182991E0,3.2027283E0,8.987457E0,1.694732E1,1.862606E1,1.2597093E1,1.3760601E1,5.218569E0,0E0,3.1179886E0,7.5821095E0,5.393661E0,2.1485062E0,7.3695145E0,0E0,0E0,4.959681E-1,1.7239447E1,3.051159E0,1.694448E1,9.597034E0,1.26570835E1,8.823593E0,6.0274544E0,5.7061024E0,1.6948547E0,3.4226305E0,0E0,1.5872116E0,5.115052E0,3.819407E0,0E0,1.6257524E0,1.1556091E0,1.7103771E0,5.801407E0,0E0,0E0,0E0,2.0271347E1,2.5209446E0,5.5617924E0,2.2865868E0,1.1730429E1,5.411968E0,3.1579075E0,4.473234E0,0E0,0E0,0E0,0E0,0E0,0E0,0E0,0E0,0E0,0E0,0E0,0E0,0E0,0E0,0E0,0E0,0E0,0E0,0E0,0E0,0E0,0E0,0E0,0E0,0E0,0E0,0E0,0E0,0E0,0E0,0E0,0E0,0E0,0E0,0E0,0E0,0E0,0E0,0E0,0E0,0E0,0E0],"parents":[2147483647,0,0,1,1,2,2,3,3,4,4,5,5,6,6,7,7,8,8,9,9,10,10,11,11,12,12,13,13,14,14,15,15,16,16,17,17,19,19,20,20,21,21,22,22,23,23,26,26,27,27,28,28,29,29,30,30,31,31,32,32,33,33,34,34,35,35,36,36,38,38,39,39,40,40,42,42,43,43,44,44,45,45,49,49,50,50,51,51,52,52,53,53,54,54,55,55,56,56],"right_children":[2,4,6,8,10,12,14,16,18,20,22,24,26,28,30,32,34,36,-1,38,40,42,44,46,-1,-1,48,50,52,54,56,58,60,62,64,66,68,-1,70,72,74,-1,76,78,80,82,-1,-1,-1,84,86,88,90,92,94,96,98,-1,-1,-1,-1,-1,-1,-1,-1,-1,-1,-1,-1,-1,-1,-1,-1,-1,-1,-1,-1,-1,-1,-1,-1,-1,-1,-1,-1,-1,-1,-1,-1,-1,-1,-1,-1,-1,-1,-1,-1,-1,-1],"split_conditions":[1E0,1E0,1E0,1E0,4.4E1,6.530612E-1,1E0,2.2E1,2E0,3E0,1E0,1.4E1,4E0,1.6666668E-2,4E0,1.974E3,1E0,9.2788464E-1,2.8717184E-1,3E0,5E0,9.423077E1,4E0,2E0,3.0829155E-1,-4.851339E-1,2.397E3,1E0,1.3E1,6.9E1,5E0,2.1E1,4.8E1,1.0344828E1,2.7E1,1E0,9.433962E-3,1.0267719E-1,4.8387095E-2,6E0,1E0,-2.687744E-1,3.891E3,1.1053E4,1.4E1,4E0,-3.5334826E-1,2.5480428E-1,1.4355399E-2,2.8E1,1E1,9.6E1,2E0,4.79E3,7.66E2,1E0,1E2,-1.6521887E-1,1.4824438E-1,6.0408637E-2,-1.8570039E-1,1.721123E-1,4.8538557E-1,2.2121261E-1,-1.573095E-1,-2.9452592E-1,2.571033E-2,-1.937469E-1,3.381906E-1,-2.7008313E-1,3.6456015E-2,1.430932E-1,-7.082978E-2,-2.908983E-1,7.383784E-2,3.6966345E-1,-1.7012361E-2,-2.8712973E-1,-5.2613374E-2,-1.7574759E-1,2.0548826E-1,2.4095683E-1,-1.5280552E-1,3.2360595E-1,-1.7577045E-2,3.118052E-1,1.4644659E-1,2.4283537E-1,-3.3509257E-1,2.8467238E-1,-4.7748256E-2,7.481708E-2,-1.6928661E-1,1.7619766E-2,-3.228793E-1,4.000366E-1,-8.287865E-2,-2.1495005E-1,2.3750691E-1],"split_indices":[82,19,83,49,54,60,19,2,48,37,83,42,37,24,4,79,35,56,0,13,83,67,4,9,0,0,79,48,2,54,83,1,80,67,54,27,23,0,23,37,7,0,0,0,42,5,0,0,0,1,43,78,12,79,0,12,1,0,0,0,0,0,0,0,0,0,0,0,0,0,0,0,0,0,0,0,0,0,0,0,0,0,0,0,0,0,0,0,0,0,0,0,0,0,0,0,0,0,0],"split_type":[0,0,0,0,0,0,0,0,0,0,0,0,0,0,0,0,0,0,0,0,0,0,0,0,0,0,0,0,0,0,0,0,0,0,0,0,0,0,0,0,0,0,0,0,0,0,0,0,0,0,0,0,0,0,0,0,0,0,0,0,0,0,0,0,0,0,0,0,0,0,0,0,0,0,0,0,0,0,0,0,0,0,0,0,0,0,0,0,0,0,0,0,0,0,0,0,0,0,0],"sum_hessian":[8.905282E2,3.976176E2,4.9291058E2,2.0374411E2,1.9387352E2,1.13421745E2,3.7948883E2,1.6418253E2,3.9561584E1,8.091196E1,1.12961555E2,1.0682652E2,6.595221E0,2.529639E2,1.2652493E2,1.25656586E2,3.8525932E1,3.636446E1,3.1971247E0,2.8777964E1,5.2133995E1,5.8380446E0,1.0712351E2,5.0888336E1,5.593819E1,1.2086089E0,5.3866124E0,1.9871068E2,5.4253227E1,1.08050735E2,1.8474192E1,5.672723E1,6.892936E1,2.4683235E1,1.3842699E1,3.380046E1,2.5639992E0,1.8737837E0,2.690418E1,3.8353134E1,1.3780858E1,2.7877614E0,3.0502832E0,1.0487883E2,2.2446868E0,4.962252E1,1.2658172E0,4.338665E0,1.0479475E0,1.5923901E2,3.9471657E1,4.1837506E0,5.0069477E1,6.970944E1,3.83413E1,1.1423471E1,7.050721E0,1.498532E1,4.1741913E1,1.6868658E1,5.2060696E1,1.235173E1,1.2331505E1,4.495733E0,9.346966E0,3.2404545E1,1.3959163E0,1.0700098E0,1.4939892E0,2.5527515E1,1.3766643E0,1.9101738E1,1.9251398E1,1.0930178E1,2.8506806E0,1.624089E0,1.4261942E0,1.0244253E2,2.4363003E0,1.2026622E0,1.0420246E0,4.6658604E1,2.9639163E0,1.6596678E1,1.4264233E2,2.0816933E1,1.8654724E1,2.63205E0,1.5517006E0,4.841015E1,1.6593286E0,3.853765E1,3.117179E1,4.66607E0,3.3675232E1,1.0404441E1,1.0190302E0,5.0926533E0,1.9580678E0],"tree_param":{"num_deleted":"0","num_feature":"84","num_nodes":"99","size_leaf_vector":"1"}},{"base_weights":[5.2824738E-3,-1.01753406E-1,8.5340005E-1,-2.1883497E-1,5.8565736E-1,1.927954E-1,9.898055E-1,-2.4009463E-3,-5.356442E-1,8.3790517E-1,8.689403E-2,6.613134E-1,-4.121584E-1,1.0265002E0,-1.284103E-1,1.1854785E-1,-8.013415E-1,-3.6359346E-1,-9.408455E-1,8.9579326E-1,1.4071615E-1,4.6829373E-1,-5.2070385E-1,9.7620803E-1,-1.6230506E-1,-2.6708034E-1,2.8204855E-1,1.0476923E0,-5.9622396E-2,1.5180108E-1,-1.9837373E-1,1.2392089E-2,8.4885347E-1,8.8420236E-1,-1.0333111E0,-8.640958E-1,-1.09164044E-1,-9.728473E-1,1.4990552E-1,9.315767E-1,-1.0856928E-1,2.2583452E-1,-2.6353946E-1,9.987905E-1,-3.4664297E-3,-2.936458E-1,-1.9754787E-1,3.4279668E-1,4.0609375E-1,-2.0360607E-1,1.7043056E-1,-1.1613212E-1,2.0337771E-1,1.0665668E0,2.7811447E-2,5.2742615E-2,-1.3244984E-1,-4.6229735E-2,3.0591887E-1,3.4071475E-1,-4.54399E-2,-3.4962076E-1,1.2574643E-1,-2.2731589E-1,-5.843109E-1,2.9085971E-2,-2.274247E-1,-2.9690623E-1,1.5142536E-2,2.9253307E-1,1.4482258E-1,5.5925306E-2,3.3789933E-1,2.0534423E-1,-1.9630139E-1,3.4899108E-2,-2.7700728E-1,8.720714E-3,1.701555E-1,3.2348832E-1,8.348722E-2],"categories":[],"categories_nodes":[],"categories_segments":[],"categories_sizes":[],"default_left":[0,0,0,0,0,0,0,0,0,0,0,0,0,0,0,0,0,0,0,0,0,0,0,0,0,0,0,0,0,0,0,0,0,0,0,0,0,0,0,0,0,0,0,0,0,0,0,0,0,0,0,0,0,0,0,0,0,0,0,0,0,0,0,0,0,0,0,0,0,0,0,0,0,0,0,0,0,0,0,0,0],"id":10,"left_children":[1,3,5,7,9,11,13,15,17,19,21,23,25,27,29,31,33,35,37,39,41,43,45,47,49,-1,51,53,-1,-1,-1,55,57,59,61,63,65,67,-1,69,-1,-1,-1,71,73,-1,75,-1,77,-1,-1,-1,-1,79,-1,-1,-1,-1,-1,-1,-1,-1,-1,-1,-1,-1,-1,-1,-1,-1,-1,-1,-1,-1,-1,-1,-1,-1,-1,-1,-1],"loss_changes":[7.210903E1,5.6898186E1,7.8302155E0,4.137546E1,1.2876667E1,4.9424686E0,3.1492462E0,3.4835533E1,1.6732582E1,2.6280594E0,8.51378E0,2.6661649E0,2.8423443E0,2.0598755E0,1.4248682E0,2.4264383E1,1.9446417E1,2.2006155E1,3.8223038E0,3.1644363E0,4.664895E0,5.622173E0,1.9141428E0,2.1326876E-1,1.7176374E0,0E0,1.3070555E0,1.1675415E0,0E0,0E0,0E0,2.0430483E1,6.964939E0,1.8060255E0,8.570709E0,5.2497673E0,1.5616328E1,1.2758179E0,0E0,7.2829056E-1,0E0,0E0,0E0,8.8530064E-1,6.2150173E0,0E0,2.2945201E0,0E0,1.7569333E-1,0E0,0E0,0E0,0E0,3.359604E-1,0E0,0E0,0E0,0E0,0E0,0E0,0E0,0E0,0E0,0E0,0E0,0E0,0E0,0E0,0E0,0E0,0E0,0E0,0E0,0E0,0E0,0E0,0E0,0E0,0E0,0E0,0E0],"parents":[2147483647,0,0,1,1,2,2,3,3,4,4,5,5,6,6,7,7,8,8,9,9,10,10,11,11,12,12,13,13,14,14,15,15,16,16,17,17,18,18,19,19,20,20,21,21,22,22,23,23,24,24,26,26,27,27,31,31,32,32,33,33,34,34,35,35,36,36,37,37,39,39,43,43,44,44,46,46,48,48,53,53],"right_children":[2,4,6,8,10,12,14,16,18,20,22,24,26,28,30,32,34,36,38,40,42,44,46,48,50,-1,52,54,-1,-1,-1,56,58,60,62,64,66,68,-1,70,-1,-1,-1,72,74,-1,76,-1,78,-1,-1,-1,-1,80,-1,-1,-1,-1,-1,-1,-1,-1,-1,-1,-1,-1,-1,-1,-1,-1,-1,-1,-1,-1,-1,-1,-1,-1,-1,-1,-1],"split_conditions":[1.7E1,1E0,4.901961E-2,1E0,4E0,5E0,8.702E3,7E0,5E0,3E0,1E0,1.8421053E1,1E0,5.9E1,1E0,6.779661E-2,1.1E1,3E0,1.6E1,3E0,1.3E1,8E0,1E0,2.2E1,9.433962E-3,-2.6708034E-1,1.2820513E-2,2.29E2,-5.9622396E-2,1.5180108E-1,-1.9837373E-1,5.5E1,1.3E1,1.37E2,2.974E3,1E0,2E0,2.8E1,1.4990552E-1,5.972E3,-1.0856928E-1,2.2583452E-1,-2.6353946E-1,1E0,8E0,-2.936458E-1,6.375E0,3.4279668E-1,2.4E1,-2.0360607E-1,1.7043056E-1,-1.1613212E-1,2.0337771E-1,2E0,2.7811447E-2,5.2742615E-2,-1.3244984E-1,-4.6229735E-2,3.0591887E-1,3.4071475E-1,-4.54399E-2,-3.4962076E-1,1.2574643E-1,-2.2731589E-1,-5.843109E-1,2.9085971E-2,-2.274247E-1,-2.9690623E-1,1.5142536E-2,2.9253307E-1,1.4482258E-1,5.5925306E-2,3.3789933E-1,2.0534423E-1,-1.9630139E-1,3.4899108E-2,-2.7700728E-1,8.720714E-3,1.701555E-1,3.2348832E-1,8.348722E-2],"split_indices":[44,48,23,19,83,83,79,83,83,58,19,72,58,38,22,24,2,37,44,10,43,44,82,44,23,0,23,54,0,0,0,1,2,78,78,82,5,2,0,79,0,0,0,76,43,0,45,0,2,0,0,0,0,19,0,0,0,0,0,0,0,0,0,0,0,0,0,0,0,0,0,0,0,0,0,0,0,0,0,0,0],"split_type":[0,0,0,0,0,0,0,0,0,0,0,0,0,0,0,0,0,0,0,0,0,0,0,0,0,0,0,0,0,0,0,0,0,0,0,0,0,0,0,0,0,0,0,0,0,0,0,0,0,0,0,0,0,0,0,0,0,0,0,0,0,0,0,0,0,0,0,0,0,0,0,0,0,0,0,0,0,0,0,0,0],"sum_hessian":[7.923794E2,7.043656E2,8.801377E1,6.024384E2,1.019272E2,1.5476288E1,7.253748E1,3.585179E2,2.4392052E2,6.7240555E1,3.4686638E1,8.669142E0,6.807146E0,7.031218E1,2.225303E0,3.1211893E2,4.6398968E1,1.7255151E2,7.1369E1,6.182253E1,5.4180303E0,2.1450844E1,1.3235796E1,6.1373696E0,2.531772E0,3.8637247E0,2.9434214E0,6.925917E1,1.053014E0,1.0388117E0,1.1864913E0,2.7339566E2,3.8723278E1,5.272933E0,4.1126038E1,5.7346264E1,1.15205246E2,7.013558E1,1.2334217E0,6.0364353E1,1.458175E0,3.548423E0,1.8696073E0,9.571022E0,1.1879822E1,4.6354737E0,8.600322E0,3.9731367E0,2.1642332E0,1.5246719E0,1.0071001E0,1.1023165E0,1.841105E0,6.780228E1,1.4568945E0,2.0147159E2,7.192407E1,5.6513014E0,3.3071976E1,4.164884E0,1.108049E0,3.7878864E1,3.2471726E0,5.376726E1,3.579001E0,8.807909E1,2.7126158E1,6.903243E1,1.1031505E0,5.3958286E1,6.406066E0,1.6327586E0,7.9382634E0,5.750314E0,6.129507E0,6.590128E0,2.010194E0,1.0012699E0,1.1629634E0,6.6445816E1,1.3564614E0],"tree_param":{"num_deleted":"0","num_feature":"84","num_nodes":"81","size_leaf_vector":"1"}},{"base_weights":[4.5653847E-3,-8.2023E-2,7.905394E-1,2.2072984E-1,-2.6848978E-1,1.7931406E-1,9.318871E-1,9.825988E-2,8.22929E-1,2.3322856E-2,-4.9058598E-1,5.865551E-1,-3.5363048E-1,9.710867E-1,-3.4678277E-2,1.5238171E-2,1.024793E0,8.733024E-1,2.0112716E-2,2.4489212E-1,-4.3222025E-1,-2.269882E-2,-7.0156705E-1,-9.775125E-2,9.404869E-1,-7.6334816E-1,2.5070536E-1,9.962481E-1,-5.8432072E-2,4.054221E-1,-1.6528666E-1,3.3229074E-1,-3.942835E-2,9.132208E-1,1.9613015E-2,1.9247513E-1,-2.1314688E-1,-9.732268E-3,8.973522E-1,1.9186981E-1,-9.5599204E-1,-3.5727227E-1,4.2733973E-1,-7.845413E-1,5.102393E-1,1.6061667E-1,-1.902784E-1,3.1625676E-1,7.587768E-2,-9.6738644E-2,-2.7781424E-1,-1.011757E-1,1.8811259E-1,1.034978E0,2.1855898E-1,2.0179513E-1,3.2651912E-2,-2.3708163E-1,5.0722144E-4,2.806479E-1,1.9184599E-2,1.04259126E-1,-1.5509422E-1,3.2056022E-1,-4.7252122E-2,1.4977844E-1,-1.740591E-1,2.4815847E-1,-3.3138922E-1,-1.4135742E-1,1.9617335E-1,4.6289587E-1,-1.4096283E-2,-2.5862202E-1,-2.8731277E-2,3.3264875E-1,-2.5656185E-1,3.1509927E-1,7.1849376E-2,-1.6318835E-1,2.4520466E-1],"categories":[],"categories_nodes":[],"categories_segments":[],"categories_sizes":[],"default_left":[0,0,0,0,0,0,0,0,0,0,0,0,0,0,0,0,0,0,0,0,0,0,0,0,0,0,0,0,0,0,0,0,0,0,0,0,0,0,0,0,0,0,0,0,0,0,0,0,0,0,0,0,0,0,0,0,0,0,0,0,0,0,0,0,0,0,0,0,0,0,0,0,0,0,0,0,0,0,0,0,0],"id":11,"left_children":[1,3,5,7,9,11,13,15,17,19,21,23,25,27,-1,29,31,33,35,37,39,41,43,45,47,49,51,53,-1,55,57,-1,-1,59,-1,-1,-1,61,63,65,67,69,71,73,75,-1,-1,-1,-1,-1,-1,-1,-1,77,79,-1,-1,-1,-1,-1,-1,-1,-1,-1,-1,-1,-1,-1,-1,-1,-1,-1,-1,-1,-1,-1,-1,-1,-1,-1,-1],"loss_changes":[4.9013924E1,3.668489E1,6.0073967E0,1.8197004E1,2.6061743E1,3.389474E0,2.4858398E0,1.5913691E1,1.6707535E0,1.7735413E1,2.2519012E1,2.1958835E0,1.9182917E0,1.8317375E0,0E0,1.3525461E1,1.7753067E0,1.2064686E0,2.0397556E0,1.9636822E1,1.8984398E1,1.0990736E1,1.621685E1,1.6532058E0,1.8833876E-1,1.7271042E-2,1.0015625E0,1.4247208E0,0E0,4.7397804E0,1.3707834E1,0E0,0E0,6.4635277E-1,0E0,0E0,0E0,1.5759578E1,6.15889E0,6.715926E0,9.246574E0,5.126747E0,1.6555914E1,7.8004E0,9.682742E0,0E0,0E0,0E0,0E0,0E0,0E0,0E0,0E0,3.8282776E-1,2.2106545E0,0E0,0E0,0E0,0E0,0E0,0E0,0E0,0E0,0E0,0E0,0E0,0E0,0E0,0E0,0E0,0E0,0E0,0E0,0E0,0E0,0E0,0E0,0E0,0E0,0E0,0E0],"parents":[2147483647,0,0,1,1,2,2,3,3,4,4,5,5,6,6,7,7,8,8,9,9,10,10,11,11,12,12,13,13,15,15,16,16,17,17,18,18,19,19,20,20,21,21,22,22,23,23,24,24,25,25,26,26,27,27,29,29,30,30,33,33,37,37,38,38,39,39,40,40,41,41,42,42,43,43,44,44,53,53,54,54],"right_children":[2,4,6,8,10,12,14,16,18,20,22,24,26,28,-1,30,32,34,36,38,40,42,44,46,48,50,52,54,-1,56,58,-1,-1,60,-1,-1,-1,62,64,66,68,70,72,74,76,-1,-1,-1,-1,-1,-1,-1,-1,78,80,-1,-1,-1,-1,-1,-1,-1,-1,-1,-1,-1,-1,-1,-1,-1,-1,-1,-1,-1,-1,-1,-1,-1,-1,-1,-1],"split_conditions":[1.7E1,1E0,4.901961E-2,1E0,6.122449E0,5E0,8.702E3,4E0,9.87E2,8E0,2.314E3,5E0,1E0,7E0,-3.4678277E-2,1E0,1.3043478E-1,5E0,5.301E3,2.2E1,1E0,9E1,4E0,3E0,7.119E3,8.333333E0,1.2820513E-2,1.47E2,-5.8432072E-2,9.195402E-2,4.31E2,3.3229074E-1,-3.942835E-2,1.1133E4,1.9613015E-2,1.9247513E-1,-2.1314688E-1,4.646E3,2.9411766E-1,3.3E1,1E1,1E0,1.109E3,2.43E3,7.951E3,1.6061667E-1,-1.902784E-1,3.1625676E-1,7.587768E-2,-9.6738644E-2,-2.7781424E-1,-1.011757E-1,1.8811259E-1,2E0,2.9E1,2.0179513E-1,3.2651912E-2,-2.3708163E-1,5.0722144E-4,2.806479E-1,1.9184599E-2,1.04259126E-1,-1.5509422E-1,3.2056022E-1,-4.7252122E-2,1.4977844E-1,-1.740591E-1,2.4815847E-1,-3.3138922E-1,-1.4135742E-1,1.9617335E-1,4.6289587E-1,-1.4096283E-2,-2.5862202E-1,-2.8731277E-2,3.3264875E-1,-2.5656185E-1,3.1509927E-1,7.1849376E-2,-1.6318835E-1,2.4520466E-1],"split_indices":[44,80,23,48,72,83,79,4,78,37,79,13,58,10,0,83,62,5,79,2,75,79,4,83,79,45,23,54,0,56,79,0,0,0,0,0,0,79,60,54,2,9,79,78,79,0,0,0,0,0,0,0,0,19,42,0,0,0,0,0,0,0,0,0,0,0,0,0,0,0,0,0,0,0,0,0,0,0,0,0,0],"split_type":[0,0,0,0,0,0,0,0,0,0,0,0,0,0,0,0,0,0,0,0,0,0,0,0,0,0,0,0,0,0,0,0,0,0,0,0,0,0,0,0,0,0,0,0,0,0,0,0,0,0,0,0,0,0,0,0,0,0,0,0,0,0,0,0,0,0,0,0,0,0,0,0,0,0,0,0,0,0,0,0,0],"sum_hessian":[7.182448E2,6.4777686E2,7.046798E1,2.4683105E2,4.0094577E2,1.3661332E1,5.680665E1,2.0608292E2,4.0748154E1,1.736637E2,2.2728207E2,7.6869097E0,5.9744225E0,5.4827778E1,1.9788723E0,1.9006834E2,1.6014568E1,3.825972E1,2.488434E0,1.1714739E2,5.65163E1,7.0979744E1,1.5630234E2,2.8671865E0,4.8197236E0,3.403711E0,2.5707111E0,5.3811897E1,1.0158789E0,5.9727764E1,1.3034058E2,1.4983059E1,1.0315094E0,3.633417E1,1.9255471E0,1.4104812E0,1.0779527E0,8.497193E1,3.2175457E1,2.6077656E1,3.0438644E1,4.0830864E1,3.014888E1,1.466159E2,9.68643E0,1.3161162E0,1.5510703E0,3.6782248E0,1.1414988E0,1.7212859E0,1.6824251E0,1.0438068E0,1.5269045E0,5.094398E1,2.8679144E0,3.0751698E1,2.8976067E1,2.6693975E1,1.036466E2,3.5306732E1,1.0274401E0,5.004169E1,3.4930244E1,2.7671913E1,4.503543E0,1.8904385E1,7.1732717E0,1.9907606E0,2.8447884E1,3.7176598E1,3.6542668E0,8.322011E0,2.1826868E1,1.315556E2,1.5060295E1,6.8649006E0,2.8215287E0,4.9665073E1,1.2789099E0,1.3017658E0,1.5661486E0],"tree_param":{"num_deleted":"0","num_feature":"84","num_nodes":"81","size_leaf_vector":"1"}},{"base_weights":[7.07726E-3,-2.502397E-1,2.1649939E-1,-9.089407E-2,-5.511094E-1,1.2888214E-1,7.8385377E-1,-2.1017827E-1,3.5757425E-1,-6.2098736E-1,4.1396374E-1,4.4212177E-1,-8.0687694E-2,-3.007646E-1,8.587697E-1,1.0555444E-1,-4.5873582E-1,2.0954211E-1,1.256511E0,-1.8317507E-1,-8.239645E-1,1.0318019E0,-1.20837584E-1,4.8200357E-1,-5.163338E-1,-1.9225226E-1,7.501978E-1,1.0147984E-1,-2.4326335E-1,9.1172886E-1,-1.1093872E-1,-1.0252295E-1,6.3663626E-1,-2.4975182E-2,-6.9985384E-1,5.400878E-1,-7.94636E-2,3.0981976E-1,5.862897E-1,2.4036847E-1,-7.0877016E-1,-9.292821E-1,-3.879874E-1,5.1148564E-1,-1.0095123E-1,1.5808573E-1,-5.505157E-1,5.33413E-1,-1.1966125E0,-3.101063E-1,5.5249393E-1,8.826174E-1,-6.19445E-2,9.529768E-1,-1.0609358E-1,-8.8293105E-2,1.7978385E-1,-1.2196118E-2,3.094485E-1,-1.5035307E-1,1.728553E-1,-2.2651073E-1,2.46021E-1,-7.728105E-2,2.2747016E-1,-7.230837E-2,2.8299353E-1,-1.9233881E-1,4.0855005E-1,-1.1560959E-1,3.314589E-1,-2.66297E-1,1.10678166E-1,-6.809307E-2,-2.932709E-1,-1.708484E-1,2.532857E-1,-3.43844E-2,-2.0549855E-1,2.132376E-1,4.6045996E-2,-5.2599233E-2,-4.636828E-1,-1.7079714E-1,3.6551026E-3,2.0717031E-1,-3.6550602E-1,2.6191918E-2,2.9324397E-1,2.085981E-1,-2.6891714E-1,1.3507451E-1,3.1499726E-1],"categories":[],"categories_nodes":[],"categories_segments":[],"categories_sizes":[],"default_left":[0,0,0,0,0,0,0,0,0,0,0,0,0,0,0,0,0,0,0,0,0,0,0,0,0,0,0,0,0,0,0,0,0,0,0,0,0,0,0,0,0,0,0,0,0,0,0,0,0,0,0,0,0,0,0,0,0,0,0,0,0,0,0,0,0,0,0,0,0,0,0,0,0,0,0,0,0,0,0,0,0,0,0,0,0,0,0,0,0,0,0,0,0],"id":12,"left_children":[1,3,5,7,9,11,13,15,17,19,21,23,25,27,29,31,33,35,37,39,41,43,45,47,-1,49,51,-1,-1,53,-1,55,57,59,61,63,65,67,-1,69,71,73,75,-1,-1,-1,77,79,81,83,85,87,89,91,-1,-1,-1,-1,-1,-1,-1,-1,-1,-1,-1,-1,-1,-1,-1,-1,-1,-1,-1,-1,-1,-1,-1,-1,-1,-1,-1,-1,-1,-1,-1,-1,-1,-1,-1,-1,-1,-1,-1],"loss_changes":[3.537177E1,1.4070457E1,1.7886953E1,1.0439877E1,7.1209583E0,2.0690935E1,4.1755924E0,1.2108379E1,5.2028856E0,8.318844E0,2.593628E0,1.1724403E1,1.7697971E1,1.531066E0,3.2880936E0,7.6352496E0,8.994905E0,3.5268054E0,3.0989618E0,7.1773696E0,2.6163483E0,3.8635774E0,1.6540732E0,1.1406155E1,0E0,1.4894583E1,2.4873743E0,0E0,0E0,2.6214867E0,0E0,6.9170094E0,5.2362003E0,9.39906E0,5.2612686E0,3.1779542E0,3.5865993E0,4.442481E0,0E0,1.0258528E1,3.0841618E0,1.5246849E0,3.6862178E0,0E0,0E0,0E0,1.228627E-1,8.096493E0,1.1604795E0,1.2159759E1,6.532998E0,1.3869705E0,3.2176461E0,1.6077347E0,0E0,0E0,0E0,0E0,0E0,0E0,0E0,0E0,0E0,0E0,0E0,0E0,0E0,0E0,0E0,0E0,0E0,0E0,0E0,0E0,0E0,0E0,0E0,0E0,0E0,0E0,0E0,0E0,0E0,0E0,0E0,0E0,0E0,0E0,0E0,0E0,0E0,0E0,0E0],"parents":[2147483647,0,0,1,1,2,2,3,3,4,4,5,5,6,6,7,7,8,8,9,9,10,10,11,11,12,12,13,13,14,14,15,15,16,16,17,17,18,18,19,19,20,20,21,21,22,22,23,23,25,25,26,26,29,29,31,31,32,32,33,33,34,34,35,35,36,36,37,37,39,39,40,40,41,41,42,42,46,46,47,47,48,48,49,49,50,50,51,51,52,52,53,53],"right_children":[2,4,6,8,10,12,14,16,18,20,22,24,26,28,30,32,34,36,38,40,42,44,46,48,-1,50,52,-1,-1,54,-1,56,58,60,62,64,66,68,-1,70,72,74,76,-1,-1,-1,78,80,82,84,86,88,90,92,-1,-1,-1,-1,-1,-1,-1,-1,-1,-1,-1,-1,-1,-1,-1,-1,-1,-1,-1,-1,-1,-1,-1,-1,-1,-1,-1,-1,-1,-1,-1,-1,-1,-1,-1,-1,-1,-1,-1],"split_conditions":[1E0,7E1,1.6E1,9.285714E-1,1E0,7E0,5.2E1,2.962963E1,5.6E1,1E0,5E0,1E0,2E0,1.9E1,8.444E3,1E0,1.468E3,1.3E1,2.4E1,4.174E3,3E0,9.3125E-1,5.5E1,2E0,-5.163338E-1,1E0,9.87E2,1.0147984E-1,-2.4326335E-1,7E0,-1.1093872E-1,1.6E1,1.8E1,9E1,3.5E1,3.22E2,1E0,1.177815E6,5.862897E-1,2.6E1,1E0,1E0,6E0,5.1148564E-1,-1.0095123E-1,1.5808573E-1,1.338E3,3.5E1,3.483E3,1E0,1.9791667E-1,5E0,2.1978023E-2,5.1282052E-2,-1.0609358E-1,-8.8293105E-2,1.7978385E-1,-1.2196118E-2,3.094485E-1,-1.5035307E-1,1.728553E-1,-2.2651073E-1,2.46021E-1,-7.728105E-2,2.2747016E-1,-7.230837E-2,2.8299353E-1,-1.9233881E-1,4.0855005E-1,-1.1560959E-1,3.314589E-1,-2.66297E-1,1.10678166E-1,-6.809307E-2,-2.932709E-1,-1.708484E-1,2.532857E-1,-3.43844E-2,-2.0549855E-1,2.132376E-1,4.6045996E-2,-5.2599233E-2,-4.636828E-1,-1.7079714E-1,3.6551026E-3,2.0717031E-1,-3.6550602E-1,2.6191918E-2,2.9324397E-1,2.085981E-1,-2.6891714E-1,1.3507451E-1,3.1499726E-1],"split_indices":[82,54,44,55,9,44,1,65,54,38,83,26,48,54,79,58,79,54,2,79,4,55,1,10,0,55,78,0,0,10,0,42,2,79,2,79,7,80,0,1,63,83,40,0,0,0,78,54,0,64,23,13,23,23,0,0,0,0,0,0,0,0,0,0,0,0,0,0,0,0,0,0,0,0,0,0,0,0,0,0,0,0,0,0,0,0,0,0,0,0,0,0,0],"split_type":[0,0,0,0,0,0,0,0,0,0,0,0,0,0,0,0,0,0,0,0,0,0,0,0,0,0,0,0,0,0,0,0,0,0,0,0,0,0,0,0,0,0,0,0,0,0,0,0,0,0,0,0,0,0,0,0,0,0,0,0,0,0,0,0,0,0,0,0,0,0,0,0,0,0,0,0,0,0,0,0,0,0,0,0,0,0,0,0,0,0,0,0,0],"sum_hessian":[6.543905E2,2.9353238E2,3.608581E2,1.9275056E2,1.0078181E2,3.136482E2,4.7209923E1,1.5267358E2,4.007698E1,9.430968E1,6.4721327E0,1.2528205E2,1.8836612E2,2.855394E0,4.4354527E1,6.750281E1,8.517078E1,3.54692E1,4.60778E0,3.0476254E1,6.3833424E1,2.5717533E0,3.9003794E0,1.2377726E2,1.5047976E0,1.6674551E2,2.1620617E1,1.4170732E0,1.4383205E0,4.2768806E1,1.5857215E0,4.908019E1,1.8422619E1,3.0823765E1,5.4347015E1,1.6140257E1,1.9328943E1,2.5679018E0,2.0398784E0,1.7177044E1,1.329921E1,5.0502254E1,1.3331169E1,1.5588382E0,1.0129151E0,1.4651324E0,2.4352472E0,1.2076105E2,3.016207E0,1.4446753E2,2.2277983E1,1.8514978E1,3.1056385E0,4.1657753E1,1.1110537E0,3.900233E1,1.0077855E1,7.1151853E0,1.1307433E1,1.7292234E1,1.3531531E1,5.2928642E1,1.4183717E0,3.4271975E0,1.2713059E1,1.7352213E1,1.9767295E0,1.5538743E0,1.0140275E0,1.0286067E1,6.890976E0,1.15571785E1,1.7420311E0,3.6156604E0,4.6886597E1,1.2088455E1,1.2427146E0,1.0108774E0,1.4243698E0,8.1731575E1,3.9029472E1,1.1508418E0,1.8653651E0,7.96437E1,6.482383E1,2.123251E1,1.0454729E0,2.1777165E0,1.6337261E1,1.7155095E0,1.3901291E0,7.6510277E0,3.4006725E1],"tree_param":{"num_deleted":"0","num_feature":"84","num_nodes":"93","size_leaf_vector":"1"}},{"base_weights":[6.7814426E-3,1.6559364E-1,-2.643339E-1,-4.5111817E-1,2.36369E-1,-3.9399302E-1,3.4062332E-1,-5.755531E-1,8.9851797E-1,3.468339E-1,-3.049808E-1,-2.7610013E-1,-8.852412E-1,6.396199E-1,-8.997455E-1,-1.4806578E-1,-8.9032906E-1,-4.2052127E-2,4.0992087E-1,6.7728555E-1,1.3567291E-1,-6.226411E-1,4.2508674E-1,-7.1589154E-1,-1.33534E-1,6.351148E-2,-9.2467296E-1,1.0965372E0,-2.3618583E-2,-3.095212E-1,-2.7572082E-2,-6.0170835E-1,3.5739577E-1,-4.0810317E-1,-1.164316E0,7.253109E-1,-8.59005E-1,-1.0865935E-1,5.8258784E-1,-8.7198323E-1,1.9835074E-1,-3.4696603E-1,6.826916E-1,-2.7025798E-1,-1.0453455E0,1.2794698E-2,-6.5755415E-1,-9.50947E-1,-1.2629312E-2,3.690674E-1,9.9312805E-2,-2.5057685E-1,3.154306E-1,6.1604265E-2,-2.5782987E-1,-1.1507284E-1,2.6646718E-1,-2.4823911E-1,2.614872E-1,-3.722071E-1,-4.1503306E-2,2.6886776E-1,1.0318052E-1,3.936119E-2,-4.4478953E-1,-1.5069678E-1,6.855429E-2,2.2236204E-1,-3.0151742E-2,-3.107567E-1,3.3988476E-2,1.2666968E-1,-2.2197671E-1,-3.622571E-2,2.7073675E-1,1.02961406E-1,-2.1942376E-1,-2.531685E-1,-5.8651555E-1,-1.9172235E-1,5.0706405E-2,-2.3363294E-1,8.339374E-2,-3.0627444E-1,-1.1878286E-1,-2.1163356E-1,2.4270777E-1,-1.7649193E-1,1.6991892E-1],"categories":[],"categories_nodes":[],"categories_segments":[],"categories_sizes":[],"default_left":[0,0,0,0,0,0,0,0,0,0,0,0,0,0,0,0,0,0,0,0,0,0,0,0,0,0,0,0,0,0,0,0,0,0,0,0,0,0,0,0,0,0,0,0,0,0,0,0,0,0,0,0,0,0,0,0,0,0,0,0,0,0,0,0,0,0,0,0,0,0,0,0,0,0,0,0,0,0,0,0,0,0,0,0,0,0,0,0,0],"id":13,"left_children":[1,3,5,7,9,11,13,15,17,19,21,23,25,27,29,31,33,-1,-1,35,37,39,41,43,45,-1,47,49,51,-1,-1,53,55,57,59,61,63,65,67,69,71,-1,73,75,77,79,81,83,-1,-1,85,87,-1,-1,-1,-1,-1,-1,-1,-1,-1,-1,-1,-1,-1,-1,-1,-1,-1,-1,-1,-1,-1,-1,-1,-1,-1,-1,-1,-1,-1,-1,-1,-1,-1,-1,-1,-1,-1],"loss_changes":[2.6186201E1,1.6845572E1,1.7756783E1,7.2052927E0,2.071735E1,1.0497492E1,1.5480624E1,4.8566713E0,2.0150797E0,1.991565E1,1.3934826E1,9.3741455E0,1.7288723E0,1.001678E1,7.8184795E-1,4.094966E0,2.3194065E0,0E0,0E0,8.852417E0,1.930264E1,8.66408E0,8.313242E0,5.112253E0,8.848677E0,0E0,7.5767326E-1,2.483017E0,3.7835078E0,0E0,0E0,2.1088123E0,3.7353864E0,5.6602025E0,8.429451E-1,6.777069E0,2.5651019E0,1.5346748E1,6.839403E0,5.2843456E0,2.5133586E0,0E0,3.023816E0,5.0511045E0,2.157898E0,9.385959E0,3.072672E0,8.912144E-1,0E0,0E0,2.5113955E0,3.8427567E0,0E0,0E0,0E0,0E0,0E0,0E0,0E0,0E0,0E0,0E0,0E0,0E0,0E0,0E0,0E0,0E0,0E0,0E0,0E0,0E0,0E0,0E0,0E0,0E0,0E0,0E0,0E0,0E0,0E0,0E0,0E0,0E0,0E0,0E0,0E0,0E0,0E0],"parents":[2147483647,0,0,1,1,2,2,3,3,4,4,5,5,6,6,7,7,8,8,9,9,10,10,11,11,12,12,13,13,14,14,15,15,16,16,19,19,20,20,21,21,22,22,23,23,24,24,26,26,27,27,28,28,31,31,32,32,33,33,34,34,35,35,36,36,37,37,38,38,39,39,40,40,42,42,43,43,44,44,45,45,46,46,47,47,50,50,51,51],"right_children":[2,4,6,8,10,12,14,16,18,20,22,24,26,28,30,32,34,-1,-1,36,38,40,42,44,46,-1,48,50,52,-1,-1,54,56,58,60,62,64,66,68,70,72,-1,74,76,78,80,82,84,-1,-1,86,88,-1,-1,-1,-1,-1,-1,-1,-1,-1,-1,-1,-1,-1,-1,-1,-1,-1,-1,-1,-1,-1,-1,-1,-1,-1,-1,-1,-1,-1,-1,-1,-1,-1,-1,-1,-1,-1],"split_conditions":[1E0,2E0,6E0,1E0,1E0,1.26E2,8.045E3,2E0,1.776E3,4E0,9.032258E-1,3E0,1E0,4E0,1.6E1,1.29E2,9.2E2,-4.2052127E-2,4.0992087E-1,8.078909E6,7.5E1,1.049E3,1.6E1,4.283E3,5E0,6.351148E-2,1.0829E4,5.6603774E-2,1E0,-3.095212E-1,-2.7572082E-2,1.3E1,2.1E1,5E0,6.923077E-1,8.5E1,5.7142857E1,1.84E2,2E0,1E0,1.1E2,-3.4696603E-1,3.73E2,1.109E3,1E0,5E0,1E0,6E0,-1.2629312E-2,3.690674E-1,1.3333334E-1,1.6E1,3.154306E-1,6.1604265E-2,-2.5782987E-1,-1.1507284E-1,2.6646718E-1,-2.4823911E-1,2.614872E-1,-3.722071E-1,-4.1503306E-2,2.6886776E-1,1.0318052E-1,3.936119E-2,-4.4478953E-1,-1.5069678E-1,6.855429E-2,2.2236204E-1,-3.0151742E-2,-3.107567E-1,3.3988476E-2,1.2666968E-1,-2.2197671E-1,-3.622571E-2,2.7073675E-1,1.02961406E-1,-2.1942376E-1,-2.531685E-1,-5.8651555E-1,-1.9172235E-1,5.0706405E-2,-2.3363294E-1,8.339374E-2,-3.0627444E-1,-1.1878286E-1,-2.1163356E-1,2.4270777E-1,-1.7649193E-1,1.6991892E-1],"split_indices":[19,37,13,63,49,54,79,83,79,13,56,37,83,83,44,78,79,0,0,80,67,78,2,0,83,0,0,62,51,0,0,54,1,79,60,67,72,78,5,63,54,0,78,79,82,79,48,41,0,0,62,44,0,0,0,0,0,0,0,0,0,0,0,0,0,0,0,0,0,0,0,0,0,0,0,0,0,0,0,0,0,0,0,0,0,0,0,0,0],"split_type":[0,0,0,0,0,0,0,0,0,0,0,0,0,0,0,0,0,0,0,0,0,0,0,0,0,0,0,0,0,0,0,0,0,0,0,0,0,0,0,0,0,0,0,0,0,0,0,0,0,0,0,0,0,0,0,0,0,0,0,0,0,0,0,0,0,0,0,0,0,0,0,0,0,0,0,0,0,0,0,0,0,0,0,0,0,0,0,0,0],"sum_hessian":[6.061667E2,3.8249844E2,2.2366824E2,3.8824173E1,3.4367426E2,1.8447818E2,3.9190063E1,3.607193E1,2.752243E0,2.8572922E2,5.7945038E1,1.5003409E2,3.4444103E1,3.1968292E1,7.2217717E0,1.5920789E1,2.0151142E1,1.0722615E0,1.6799816E0,1.1053793E2,1.7519128E2,4.047923E1,1.7465805E1,3.574514E1,1.1428894E2,1.043594E0,3.340051E1,1.8541441E1,1.3426852E1,5.969298E0,1.252474E0,8.290132E0,7.6306567E0,8.203035E0,1.1948106E1,1.0769908E2,2.8388586E0,1.1375649E2,6.1434788E1,3.1001657E1,9.477572E0,1.957503E0,1.5508303E1,1.5967344E1,1.9777796E1,9.010374E1,2.4185207E1,3.23597E1,1.0408082E0,1.614359E1,2.3978488E0,1.17196045E1,1.7072484E0,2.0557733E0,6.2343583E0,3.3006911E0,4.3299656E0,6.444582E0,1.758453E0,1.0925516E1,1.0225897E0,7.343774E1,3.4261345E1,1.4021322E0,1.4367265E0,5.22559E1,6.150059E1,4.9788494E1,1.1646295E1,2.6536713E1,4.464946E0,8.0958185E0,1.3817544E0,3.4276335E0,1.2080669E1,6.9618864E0,9.005458E0,1.7770296E1,2.0074992E0,1.6821962E1,7.328178E1,2.155922E1,2.6259882E0,2.7991426E1,4.3682737E0,1.1265006E0,1.2713482E0,8.489864E0,3.2297397E0],"tree_param":{"num_deleted":"0","num_feature":"84","num_nodes":"89","size_leaf_vector":"1"}},{"base_weights":[9.5478674E-5,-8.1124224E-2,4.9909878E-1,-1.20102726E-1,9.72678E-1,7.8842914E-1,2.512827E-1,-2.6818555E-2,-5.600397E-1,2.3096514E-1,3.2927436E-1,9.2258435E-1,3.756901E-1,5.9419256E-1,-1.695267E-1,3.854244E-2,-5.5577713E-1,5.8271354E-1,-6.9171584E-1,2.1309063E-1,-9.241313E-2,3.662331E-1,2.9675055E-1,-4.378273E-1,6.8197095E-1,6.9090915E-1,-1.9436316E-1,7.989624E-1,-5.2593213E-1,9.008728E-2,-6.680724E-1,1.3521792E-1,-7.6124984E-1,8.188367E-1,-8.873869E-2,-7.9185325E-1,6.4040685E-1,2.1094917E-1,-1.34493485E-2,1.546377E-1,-3.1244987E-1,2.6085088E-1,1.8351282E-1,-1.20934516E-1,8.1272966E-1,3.38318E-1,-1.5022754E-2,-9.68371E-1,2.900262E-1,-4.389738E-2,8.035837E-2,-3.1695056E-1,2.0337686E-1,-1.7490906E-1,2.2463737E-1,-2.4709433E-1,1.628934E-1,1.2971798E-1,4.3033257E-1,2.211625E-1,-2.558694E-1,2.4992709E-1,-1.9344324E-2,-1.17440544E-1,1.8015333E-1,-2.1902958E-1,1.0666444E-1,2.66296E-1,-7.043252E-2,-4.1595802E-1,-8.3518915E-2,2.3278368E-1,-2.0573685E-1],"categories":[],"categories_nodes":[],"categories_segments":[],"categories_sizes":[],"default_left":[0,0,0,0,0,0,0,0,0,0,0,0,0,0,0,0,0,0,0,0,0,0,0,0,0,0,0,0,0,0,0,0,0,0,0,0,0,0,0,0,0,0,0,0,0,0,0,0,0,0,0,0,0,0,0,0,0,0,0,0,0,0,0,0,0,0,0,0,0,0,0,0,0],"id":14,"left_children":[1,3,5,7,9,11,13,15,17,19,-1,21,23,25,27,29,31,33,35,-1,-1,37,-1,39,41,43,-1,45,47,49,51,53,55,57,-1,59,61,-1,-1,-1,-1,-1,63,65,67,-1,-1,69,71,-1,-1,-1,-1,-1,-1,-1,-1,-1,-1,-1,-1,-1,-1,-1,-1,-1,-1,-1,-1,-1,-1,-1,-1],"loss_changes":[2.2910994E1,2.0086578E1,5.4756165E0,1.9261858E1,1.3632107E0,1.6489506E0,6.4630604E0,1.3456406E1,1.276063E1,1.1958717E0,0E0,6.1984825E-1,2.9216993E0,3.3927212E0,7.5221424E0,1.2691224E1,6.1798487E0,2.114946E0,1.0391239E1,0E0,0E0,6.439339E-1,0E0,2.5443678E0,5.919101E-1,2.3956165E0,0E0,1.7122209E0,5.9282184E0,1.366032E1,1.3105182E1,5.1340833E0,3.144333E0,1.1356463E0,0E0,7.103195E0,8.324268E-1,0E0,0E0,0E0,0E0,0E0,1.065922E0,1.3919591E0,1.8037748E0,0E0,0E0,2.6069727E0,3.5049274E0,0E0,0E0,0E0,0E0,0E0,0E0,0E0,0E0,0E0,0E0,0E0,0E0,0E0,0E0,0E0,0E0,0E0,0E0,0E0,0E0,0E0,0E0,0E0,0E0],"parents":[2147483647,0,0,1,1,2,2,3,3,4,4,5,5,6,6,7,7,8,8,9,9,11,11,12,12,13,13,14,14,15,15,16,16,17,17,18,18,21,21,23,23,24,24,25,25,27,27,28,28,29,29,30,30,31,31,32,32,33,33,35,35,36,36,42,42,43,43,44,44,47,47,48,48],"right_children":[2,4,6,8,10,12,14,16,18,20,-1,22,24,26,28,30,32,34,36,-1,-1,38,-1,40,42,44,-1,46,48,50,52,54,56,58,-1,60,62,-1,-1,-1,-1,-1,64,66,68,-1,-1,70,72,-1,-1,-1,-1,-1,-1,-1,-1,-1,-1,-1,-1,-1,-1,-1,-1,-1,-1,-1,-1,-1,-1,-1,-1],"split_conditions":[1E0,5E0,3E0,2E0,1E0,2.835E3,6.8E0,1.57E2,3.1818182E0,5E0,3.2927436E-1,4E0,3.632E3,9.394E3,4.6E1,2E0,1E0,1.49536E5,1.9E1,2.1309063E-1,-9.241313E-2,1E0,2.9675055E-1,3E0,2.739726E-2,4.6666665E0,-1.9436316E-1,2.5925926E1,1E0,2E0,1E0,7E0,3.2E1,1.4411E4,-8.873869E-2,3.142857E0,2.9E1,2.1094917E-1,-1.34493485E-2,1.546377E-1,-3.1244987E-1,2.6085088E-1,1.904762E-1,2E2,3E0,3.38318E-1,-1.5022754E-2,1.3793103E1,4.7E2,-4.389738E-2,8.035837E-2,-3.1695056E-1,2.0337686E-1,-1.7490906E-1,2.2463737E-1,-2.4709433E-1,1.628934E-1,1.2971798E-1,4.3033257E-1,2.211625E-1,-2.558694E-1,2.4992709E-1,-1.9344324E-2,-1.17440544E-1,1.8015333E-1,-2.1902958E-1,1.0666444E-1,2.66296E-1,-7.043252E-2,-4.1595802E-1,-8.3518915E-2,2.3278368E-1,-2.0573685E-1],"split_indices":[48,4,83,5,54,79,46,54,47,13,0,37,79,79,1,10,80,80,44,0,0,58,0,39,23,45,0,72,31,41,7,40,2,80,0,46,54,0,0,0,0,0,55,78,10,0,0,72,78,0,0,0,0,0,0,0,0,0,0,0,0,0,0,0,0,0,0,0,0,0,0,0,0],"split_type":[0,0,0,0,0,0,0,0,0,0,0,0,0,0,0,0,0,0,0,0,0,0,0,0,0,0,0,0,0,0,0,0,0,0,0,0,0,0,0,0,0,0,0,0,0,0,0,0,0,0,0,0,0,0,0,0,0,0,0,0,0,0,0,0,0,0,0,0,0,0,0,0,0],"sum_hessian":[5.633012E2,4.851704E2,7.813078E1,4.6871924E2,1.6451164E1,3.5039703E1,4.309108E1,3.875947E2,8.1124565E1,2.7817056E0,1.3669459E1,2.5512075E1,9.527627E0,2.3516165E1,1.9574915E1,3.4579367E2,4.180101E1,8.02801E0,7.309655E1,1.3041453E0,1.4775603E0,3.4217284E0,2.2090347E1,2.4884691E0,7.0391583E0,2.2228996E1,1.2871681E0,4.931751E0,1.4643165E1,3.2309747E2,2.2696213E1,9.659266E0,3.2141743E1,6.3808966E0,1.6471137E0,6.8363174E1,4.7333784E0,1.4899173E0,1.9318112E0,1.0214998E0,1.4669693E0,4.5739455E0,2.4652128E0,2.9012926E0,1.9327703E1,3.3185167E0,1.6132338E0,9.37367E0,5.2694945E0,1.3875356E2,1.843439E2,1.778024E1,4.915973E0,4.472981E0,5.186286E0,3.1025856E1,1.1158848E0,4.965938E0,1.4149585E0,2.1992512E0,6.6163925E1,3.5744224E0,1.1589559E0,1.0620373E0,1.4031755E0,1.0397485E0,1.861544E0,1.8179968E1,1.1477358E0,5.2079096E0,4.1657605E0,3.65451E0,1.6149845E0],"tree_param":{"num_deleted":"0","num_feature":"84","num_nodes":"73","size_leaf_vector":"1"}},{"base_weights":[2.8585163E-3,-3.6833268E-2,8.584584E-1,3.6852732E-1,-1.10202506E-1,9.234024E-1,8.457381E-3,6.56125E-2,5.308215E-1,-1.4238338E-1,7.493692E-1,2.1517938E-2,9.8418343E-1,-1.742979E-1,7.047772E-1,2.795813E-1,8.587485E-1,-1.7668349E-1,6.228789E-1,8.850476E-1,-1.2287179E-1,3.8373154E-2,3.0719852E-1,-3.784665E-1,5.8973706E-1,-4.2617723E-2,8.912266E-1,3.9554304E-1,-2.7734795E-1,2.8882152E-1,2.7488485E-1,-2.3077201E-2,-3.84547E-1,9.935891E-1,3.46963E-2,5.4811127E-2,3.1328082E-1,3.530332E-2,-2.6447004E-1,2.588177E-1,-7.06947E-2,3.000579E-1,4.509333E-2,1.5138745E-1,-2.8922865E-1,2.056665E-1,-8.739404E-2,-7.556156E-2,7.4660696E-2,-1.5253893E-1,1.04639955E-1,3.155593E-1,6.570907E-2,2.4581161E-1,-1.1522361E-1,-1.21508956E-1,1.4701942E-1],"categories":[],"categories_nodes":[],"categories_segments":[],"categories_sizes":[],"default_left":[0,0,0,0,0,0,0,0,0,0,0,0,0,0,0,0,0,0,0,0,0,0,0,0,0,0,0,0,0,0,0,0,0,0,0,0,0,0,0,0,0,0,0,0,0,0,0,0,0,0,0,0,0,0,0,0,0],"id":15,"left_children":[1,3,5,7,9,11,-1,13,15,17,19,-1,21,23,25,27,29,31,33,35,-1,-1,-1,37,39,-1,41,43,-1,-1,45,47,49,51,53,55,-1,-1,-1,-1,-1,-1,-1,-1,-1,-1,-1,-1,-1,-1,-1,-1,-1,-1,-1,-1,-1],"loss_changes":[1.8116882E1,1.5205273E1,1.249239E0,3.8181944E0,1.2070845E1,1.063261E0,0E0,4.4905205E0,3.952814E0,1.1075336E1,2.841898E0,0E0,5.632839E-1,3.5788188E0,1.3852737E0,4.596073E0,1.0464544E0,1.2782128E1,3.9212523E0,1.8505278E0,0E0,0E0,0E0,4.4929895E0,1.3134809E0,0E0,3.882208E-1,4.6891737E0,0E0,0E0,1.2842362E0,1.4462379E1,1.5641592E1,2.7027225E-1,2.959899E0,8.7453556E-1,0E0,0E0,0E0,0E0,0E0,0E0,0E0,0E0,0E0,0E0,0E0,0E0,0E0,0E0,0E0,0E0,0E0,0E0,0E0,0E0,0E0],"parents":[2147483647,0,0,1,1,2,2,3,3,4,4,5,5,7,7,8,8,9,9,10,10,12,12,13,13,14,14,15,15,16,16,17,17,18,18,19,19,23,23,24,24,26,26,27,27,30,30,31,31,32,32,33,33,34,34,35,35],"right_children":[2,4,6,8,10,12,-1,14,16,18,20,-1,22,24,26,28,30,32,34,36,-1,-1,-1,38,40,-1,42,44,-1,-1,46,48,50,52,54,56,-1,-1,-1,-1,-1,-1,-1,-1,-1,-1,-1,-1,-1,-1,-1,-1,-1,-1,-1,-1,-1],"split_conditions":[2.9E1,1E0,2.264151E-1,3E0,5E0,9.433962E-3,8.457381E-3,9.736842E-1,1.3E1,2E0,8.348E3,2.1517938E-2,6.6E0,3.38E2,3E0,7.428571E0,4E0,8E0,1.5873017E-2,1E0,-1.2287179E-1,3.8373154E-2,3.0719852E-1,5.75E-1,8.81E2,-4.2617723E-2,3.3E1,1E0,-2.7734795E-1,2.8882152E-1,2.1E1,2E1,1E0,1.12E2,6E0,5.051E3,3.1328082E-1,3.530332E-2,-2.6447004E-1,2.588177E-1,-7.06947E-2,3.000579E-1,4.509333E-2,1.5138745E-1,-2.8922865E-1,2.056665E-1,-8.739404E-2,-7.556156E-2,7.4660696E-2,-1.5253893E-1,1.04639955E-1,3.155593E-1,6.570907E-2,2.4581161E-1,-1.1522361E-1,-1.21508956E-1,1.4701942E-1],"split_indices":[42,83,62,37,4,23,0,55,42,48,79,0,45,78,13,45,41,44,23,54,0,0,0,55,78,0,1,8,0,0,54,2,7,54,46,79,0,0,0,0,0,0,0,0,0,0,0,0,0,0,0,0,0,0,0,0,0],"split_type":[0,0,0,0,0,0,0,0,0,0,0,0,0,0,0,0,0,0,0,0,0,0,0,0,0,0,0,0,0,0,0,0,0,0,0,0,0,0,0,0,0,0,0,0,0,0,0,0,0,0,0,0,0,0,0,0,0],"sum_hessian":[5.315415E2,5.0889072E2,2.265079E1,7.737509E1,4.315156E2,2.0903528E1,1.7472609E0,2.7483206E1,4.9891888E1,4.1674765E2,1.4767953E1,1.537656E0,1.9365871E1,2.0511515E1,6.971691E0,2.9297935E1,2.0593952E1,3.996059E2,1.7141768E1,1.3431809E1,1.3361434E0,1.0475681E0,1.8318304E1,1.6584408E1,3.9271069E0,1.3009547E0,5.6707363E0,2.7336697E1,1.96124E0,1.6929747E1,3.6642065E0,2.3043259E2,1.691733E2,1.0091935E1,7.0498333E0,2.3777342E0,1.1054075E1,8.735642E0,7.8487654E0,2.9170735E0,1.0100336E0,4.6385965E0,1.0321398E0,2.588855E1,1.4481465E0,2.001611E0,1.6625954E0,1.25185196E2,1.052474E2,1.4498187E2,2.419142E1,9.0528145E0,1.0391208E0,2.1203167E0,4.9295163E0,1.189976E0,1.1877582E0],"tree_param":{"num_deleted":"0","num_feature":"84","num_nodes":"57","size_leaf_vector":"1"}},{"base_weights":[8.2740635E-3,-4.267297E-2,5.923965E-1,1.08345374E-1,-2.368897E-1,8.616131E-1,1.0433433E-1,1.2506739E-2,7.7393043E-1,8.695706E-1,-2.9883698E-1,9.7117555E-1,1.6321525E-1,-3.415292E-1,7.4370825E-1,-2.11675E-1,2.9145625E-1,8.577431E-1,-2.4576934E-1,-4.033093E-2,1.0257142E0,-4.179964E-1,2.4306011E-1,1.0338922E0,-2.657262E-2,1.7249218E-1,-1.2963752E-1,3.610561E-1,-7.4962616E-1,1.1926962E-3,3.0397534E-1,2.3667978E-1,-3.8719052E-1,6.0124165E-1,-1.449309E-1,9.427471E-1,-1.0985149E-1,3.4615052E-1,1.71811E-2,-4.6123767E-1,1.1244276E0,4.440838E-1,-3.7216735E-1,1.0924311E0,5.143063E-1,-4.962763E-2,2.0413215E-1,-3.2537803E-1,-1.5412155E-1,-1.4907226E-1,1.8089655E-1,-7.545756E-2,-3.2842153E-1,7.268904E-2,3.0148208E-1,-7.376639E-2,2.8967288E-1,2.7651882E-2,3.081357E-1,-1.5757342E-1,8.286178E-2,8.802788E-2,3.8734314E-1,-6.691212E-2,2.1390967E-1,-2.1933195E-1,1.9758397E-1,1.04214914E-1,3.372228E-1,2.2132625E-1,-2.4099445E-2,-1.2144227E-1,4.424002E-2],"categories":[],"categories_nodes":[],"categories_segments":[],"categories_sizes":[],"default_left":[0,0,0,0,0,0,0,0,0,0,0,0,0,0,0,0,0,0,0,0,0,0,0,0,0,0,0,0,0,0,0,0,0,0,0,0,0,0,0,0,0,0,0,0,0,0,0,0,0,0,0,0,0,0,0,0,0,0,0,0,0,0,0,0,0,0,0,0,0,0,0,0,0],"id":16,"left_children":[1,3,5,7,9,11,13,15,17,19,21,23,25,27,29,31,33,35,-1,-1,37,39,41,43,-1,-1,-1,45,47,-1,-1,49,51,53,55,57,-1,-1,-1,59,61,63,65,67,69,-1,-1,-1,71,-1,-1,-1,-1,-1,-1,-1,-1,-1,-1,-1,-1,-1,-1,-1,-1,-1,-1,-1,-1,-1,-1,-1,-1],"loss_changes":[1.5141209E1,1.3755879E1,5.273034E0,1.6832838E1,1.431706E1,1.8437881E0,4.714801E0,1.4558561E1,5.138077E0,1.882616E0,1.2690525E1,1.5815125E0,1.4129658E0,3.1104608E0,1.3405666E0,1.02513895E1,1.4107701E1,3.6791515E0,0E0,0E0,1.1433372E0,1.1202328E1,4.5897408E0,8.429909E-2,0E0,0E0,0E0,8.379729E-1,1.1474338E0,0E0,0E0,1.0226766E1,8.667373E0,8.5738735E0,5.1551495E0,2.0757828E0,0E0,0E0,0E0,7.5333023E0,2.666254E-1,5.0788383E0,3.9425902E0,3.8684845E-2,5.961492E-1,0E0,0E0,0E0,3.2719156E-1,0E0,0E0,0E0,0E0,0E0,0E0,0E0,0E0,0E0,0E0,0E0,0E0,0E0,0E0,0E0,0E0,0E0,0E0,0E0,0E0,0E0,0E0,0E0,0E0],"parents":[2147483647,0,0,1,1,2,2,3,3,4,4,5,5,6,6,7,7,8,8,9,9,10,10,11,11,12,12,13,13,14,14,15,15,16,16,17,17,20,20,21,21,22,22,23,23,27,27,28,28,31,31,32,32,33,33,34,34,35,35,39,39,40,40,41,41,42,42,43,43,44,44,48,48],"right_children":[2,4,6,8,10,12,14,16,18,20,22,24,26,28,30,32,34,36,-1,-1,38,40,42,44,-1,-1,-1,46,48,-1,-1,50,52,54,56,58,-1,-1,-1,60,62,64,66,68,70,-1,-1,-1,72,-1,-1,-1,-1,-1,-1,-1,-1,-1,-1,-1,-1,-1,-1,-1,-1,-1,-1,-1,-1,-1,-1,-1,-1],"split_conditions":[6.779661E-2,4E0,2.5925926E1,6E0,8E0,1E0,3E0,2.17E2,8.088E3,4.8E0,7.2727275E-1,3.317498E6,1.2233E4,9.94E2,1.0666667E-1,5.181347E-3,1E0,5E0,-2.4576934E-1,-4.033093E-2,2.72E2,7.375648E6,4.4E1,8.461539E1,-2.657262E-2,1.7249218E-1,-1.2963752E-1,2.2E1,8.3333336E1,1.1926962E-3,3.0397534E-1,3.22E2,1.82E2,1.8E1,4E0,4.5E0,-1.0985149E-1,3.4615052E-1,1.71811E-2,2.1E1,4.714286E0,1E0,7.5E-2,6E0,5.521E3,-4.962763E-2,2.0413215E-1,-3.2537803E-1,1E0,-1.4907226E-1,1.8089655E-1,-7.545756E-2,-3.2842153E-1,7.268904E-2,3.0148208E-1,-7.376639E-2,2.8967288E-1,2.7651882E-2,3.081357E-1,-1.5757342E-1,8.286178E-2,